%YAML:1.0
my_svm: !!opencv-ml-svm
   svm_type: C_SVC
   kernel: { type:RBF, gamma:1. }
   C: 1.
   term_criteria: { epsilon:1.1920928955078125e-07, iterations:1000 }
   var_all: 25
   var_count: 25
   class_count: 2
   class_labels: !!opencv-matrix
      rows: 1
      cols: 2
      dt: i
      data: [ 0, 1 ]
   sv_total: 1000
   support_vectors:
      - [ 111., 111., 108., 109., 128., 107., 110., 106., 107., 109.,
          109., 109., 106., 107., 87., 108., 112., 107., 112., 97., 111.,
          113., 111., 113., 84. ]
      - [ 113., 114., 110., 110., 79., 110., 114., 109., 114., 82., 115.,
          118., 115., 118., 70., 117., 119., 116., 118., 83., 119., 120.,
          117., 119., 89. ]
      - [ 110., 114., 109., 114., 82., 115., 118., 115., 118., 70., 117.,
          119., 116., 118., 83., 119., 120., 117., 119., 89., 119., 120.,
          117., 117., 76. ]
      - [ 115., 118., 115., 118., 70., 117., 119., 116., 118., 83., 119.,
          120., 117., 119., 89., 119., 120., 117., 117., 76., 114., 115.,
          113., 114., 68. ]
      - [ 119., 120., 117., 119., 89., 119., 120., 117., 117., 76., 114.,
          115., 113., 114., 68., 110., 113., 110., 113., 76., 115., 117.,
          115., 117., 79. ]
      - [ 119., 120., 117., 117., 76., 114., 115., 113., 114., 68., 110.,
          113., 110., 113., 76., 115., 117., 115., 117., 79., 116., 118.,
          116., 116., 88. ]
      - [ 112., 114., 111., 114., 88., 115., 116., 114., 116., 86., 117.,
          120., 116., 118., 106., 119., 120., 118., 120., 88., 120.,
          121., 120., 121., 125. ]
      - [ 115., 116., 114., 116., 86., 117., 120., 116., 118., 106.,
          119., 120., 118., 120., 88., 120., 121., 120., 121., 125.,
          119., 121., 118., 120., 84. ]
      - [ 117., 120., 116., 118., 106., 119., 120., 118., 120., 88.,
          120., 121., 120., 121., 125., 119., 121., 118., 120., 84.,
          121., 122., 119., 119., 85. ]
      - [ 119., 120., 118., 120., 88., 120., 121., 120., 121., 125.,
          119., 121., 118., 120., 84., 121., 122., 119., 119., 85., 120.,
          120., 116., 116., 98. ]
      - [ 120., 120., 116., 116., 98., 113., 114., 111., 112., 136.,
          111., 114., 111., 114., 88., 114., 116., 112., 115., 88., 118.,
          119., 116., 117., 94. ]
      - [ 111., 114., 111., 114., 88., 114., 116., 112., 115., 88., 118.,
          119., 116., 117., 94., 117., 118., 114., 114., 86., 116., 117.,
          111., 114., 104. ]
      - [ 114., 116., 112., 115., 88., 118., 119., 116., 117., 94., 117.,
          118., 114., 114., 86., 116., 117., 111., 114., 104., 112.,
          113., 110., 110., 91. ]
      - [ 112., 113., 110., 110., 91., 110., 111., 106., 106., 117.,
          105., 110., 104., 110., 142., 109., 113., 109., 113., 113.,
          112., 115., 112., 115., 102. ]
      - [ 116., 118., 116., 118., 68., 117., 119., 117., 119., 72., 120.,
          121., 120., 120., 88., 119., 121., 119., 121., 73., 122., 123.,
          121., 123., 72. ]
      - [ 120., 121., 120., 120., 88., 119., 121., 119., 121., 73., 122.,
          123., 121., 123., 72., 122., 123., 120., 120., 73., 120., 123.,
          119., 123., 86. ]
      - [ 120., 123., 119., 123., 86., 122., 122., 119., 120., 88., 120.,
          120., 117., 120., 91., 121., 122., 120., 121., 90., 122., 125.,
          122., 125., 83. ]
      - [ 122., 125., 122., 125., 83., 124., 124., 121., 122., 78., 123.,
          123., 120., 122., 95., 126., 127., 124., 127., 130., 126.,
          127., 126., 127., 81. ]
      - [ 124., 124., 121., 122., 78., 123., 123., 120., 122., 95., 126.,
          127., 124., 127., 130., 126., 127., 126., 127., 81., 125.,
          126., 124., 124., 78. ]
      - [ 126., 127., 126., 127., 81., 125., 126., 124., 124., 78., 120.,
          122., 119., 120., 104., 122., 122., 120., 122., 85., 123.,
          125., 121., 125., 95. ]
      - [ 122., 122., 120., 122., 85., 123., 125., 121., 125., 95., 124.,
          124., 122., 124., 86., 124., 125., 122., 124., 75., 125., 126.,
          124., 126., 82. ]
      - [ 124., 125., 122., 124., 75., 125., 126., 124., 126., 82., 123.,
          123., 121., 121., 97., 122., 122., 120., 121., 84., 122., 124.,
          122., 124., 69. ]
      - [ 123., 123., 121., 121., 97., 122., 122., 120., 121., 84., 122.,
          124., 122., 124., 69., 123., 124., 122., 122., 59., 122., 124.,
          122., 124., 75. ]
      - [ 122., 122., 120., 121., 84., 122., 124., 122., 124., 69., 123.,
          124., 122., 122., 59., 122., 124., 122., 124., 75., 123., 124.,
          122., 122., 87. ]
      - [ 122., 124., 122., 124., 69., 123., 124., 122., 122., 59., 122.,
          124., 122., 124., 75., 123., 124., 122., 122., 87., 121., 122.,
          118., 119., 99. ]
      - [ 123., 124., 122., 122., 59., 122., 124., 122., 124., 75., 123.,
          124., 122., 122., 87., 121., 122., 118., 119., 99., 119., 119.,
          118., 118., 77. ]
      - [ 123., 124., 122., 122., 87., 121., 122., 118., 119., 99., 119.,
          119., 118., 118., 77., 116., 117., 115., 116., 92., 115., 116.,
          115., 116., 79. ]
      - [ 121., 122., 118., 119., 99., 119., 119., 118., 118., 77., 116.,
          117., 115., 116., 92., 115., 116., 115., 116., 79., 115., 115.,
          113., 113., 75. ]
      - [ 116., 117., 115., 116., 92., 115., 116., 115., 116., 79., 115.,
          115., 113., 113., 75., 112., 113., 112., 112., 23., 115., 116.,
          115., 116., 70. ]
      - [ 120., 121., 120., 121., 81., 122., 123., 121., 121., 72., 123.,
          123., 122., 122., 73., 122., 123., 122., 122., 64., 122., 123.,
          120., 122., 72. ]
      - [ 123., 123., 122., 122., 73., 122., 123., 122., 122., 64., 122.,
          123., 120., 122., 72., 121., 122., 119., 119., 82., 120., 122.,
          120., 122., 72. ]
      - [ 122., 123., 122., 122., 64., 122., 123., 120., 122., 72., 121.,
          122., 119., 119., 82., 120., 122., 120., 122., 72., 120., 120.,
          119., 120., 68. ]
      - [ 122., 123., 120., 122., 72., 121., 122., 119., 119., 82., 120.,
          122., 120., 122., 72., 120., 120., 119., 120., 68., 121., 122.,
          118., 119., 77. ]
      - [ 120., 120., 119., 120., 68., 121., 122., 118., 119., 77., 118.,
          118., 116., 117., 79., 118., 118., 116., 117., 77., 117., 119.,
          117., 117., 123. ]
      - [ 118., 118., 116., 117., 79., 118., 118., 116., 117., 77., 117.,
          119., 117., 117., 123., 118., 118., 115., 116., 67., 118.,
          120., 118., 120., 81. ]
      - [ 118., 120., 118., 120., 81., 119., 119., 117., 118., 82., 119.,
          120., 119., 120., 65., 120., 121., 120., 121., 37., 120., 121.,
          120., 121., 36. ]
      - [ 123., 124., 123., 123., 73., 124., 124., 123., 123., 78., 125.,
          125., 124., 125., 80., 124., 125., 124., 125., 74., 126., 126.,
          125., 126., 73. ]
      - [ 129., 129., 129., 129., 87., 128., 129., 128., 129., 87., 129.,
          130., 128., 129., 72., 128., 129., 128., 129., 70., 130., 131.,
          129., 131., 85. ]
      - [ 129., 130., 128., 129., 72., 128., 129., 128., 129., 70., 130.,
          131., 129., 131., 85., 131., 131., 129., 130., 89., 130., 131.,
          130., 131., 75. ]
      - [ 134., 135., 134., 135., 97., 134., 135., 134., 135., 73., 135.,
          135., 134., 135., 78., 135., 136., 134., 136., 88., 136., 136.,
          135., 136., 97. ]
      - [ 135., 135., 135., 135., 79., 136., 136., 135., 136., 70., 136.,
          136., 135., 136., 83., 137., 138., 135., 136., 91., 136., 138.,
          135., 138., 87. ]
      - [ 136., 136., 135., 136., 83., 137., 138., 135., 136., 91., 136.,
          138., 135., 138., 87., 138., 138., 137., 137., 88., 138., 138.,
          136., 137., 80. ]
      - [ 137., 137., 136., 136., 74., 136., 138., 136., 138., 78., 138.,
          138., 138., 138., 71., 137., 139., 136., 138., 77., 138., 139.,
          138., 139., 80. ]
      - [ 137., 139., 136., 138., 77., 138., 139., 138., 139., 80., 139.,
          140., 138., 138., 98., 139., 140., 139., 139., 84., 139., 140.,
          138., 139., 77. ]
      - [ 138., 139., 138., 139., 80., 139., 140., 138., 138., 98., 139.,
          140., 139., 139., 84., 139., 140., 138., 139., 77., 138., 138.,
          137., 137., 73. ]
      - [ 142., 143., 142., 143., 73., 143., 143., 142., 143., 94., 143.,
          144., 142., 144., 67., 143., 144., 142., 144., 64., 144., 144.,
          143., 144., 67. ]
      - [ 144., 144., 143., 144., 67., 143., 143., 142., 143., 65., 143.,
          143., 142., 143., 60., 144., 146., 144., 146., 71., 146., 147.,
          146., 146., 72. ]
      - [ 143., 143., 142., 143., 60., 144., 146., 144., 146., 71., 146.,
          147., 146., 146., 72., 146., 146., 144., 145., 77., 144., 145.,
          143., 145., 77. ]
      - [ 146., 146., 144., 145., 77., 144., 145., 143., 145., 77., 145.,
          145., 144., 144., 81., 144., 146., 144., 146., 78., 146., 146.,
          145., 146., 79. ]
      - [ 145., 145., 144., 144., 81., 144., 146., 144., 146., 78., 146.,
          146., 145., 146., 79., 144., 144., 142., 143., 80., 143., 144.,
          143., 144., 66. ]
      - [ 144., 146., 144., 146., 78., 146., 146., 145., 146., 79., 144.,
          144., 142., 143., 80., 143., 144., 143., 144., 66., 142., 143.,
          141., 142., 58. ]
      - [ 143., 144., 143., 144., 66., 142., 143., 141., 142., 58., 142.,
          143., 139., 139., 87., 141., 141., 140., 141., 66., 141., 143.,
          141., 143., 63. ]
      - [ 142., 143., 141., 142., 58., 142., 143., 139., 139., 87., 141.,
          141., 140., 141., 66., 141., 143., 141., 143., 63., 142., 142.,
          140., 140., 63. ]
      - [ 141., 141., 140., 141., 66., 141., 143., 141., 143., 63., 142.,
          142., 140., 140., 63., 141., 141., 139., 139., 69., 140., 142.,
          140., 142., 67. ]
      - [ 141., 143., 141., 143., 63., 142., 142., 140., 140., 63., 141.,
          141., 139., 139., 69., 140., 142., 140., 142., 67., 141., 142.,
          141., 141., 69. ]
      - [ 141., 141., 139., 139., 69., 140., 142., 140., 142., 67., 141.,
          142., 141., 141., 69., 141., 143., 140., 140., 89., 141., 142.,
          140., 140., 86. ]
      - [ 138., 138., 137., 138., 78., 138., 139., 137., 138., 74., 140.,
          141., 140., 141., 75., 141., 143., 141., 142., 77., 143., 144.,
          142., 143., 78. ]
      - [ 141., 143., 141., 142., 77., 143., 144., 142., 143., 78., 143.,
          143., 142., 142., 71., 142., 144., 142., 142., 82., 142., 143.,
          141., 143., 80. ]
      - [ 143., 144., 142., 143., 78., 143., 143., 142., 142., 71., 142.,
          144., 142., 142., 82., 142., 143., 141., 143., 80., 143., 143.,
          141., 141., 83. ]
      - [ 142., 144., 142., 142., 82., 142., 143., 141., 143., 80., 143.,
          143., 141., 141., 83., 140., 140., 138., 138., 86., 137., 138.,
          137., 138., 76. ]
      - [ 143., 143., 141., 141., 83., 140., 140., 138., 138., 86., 137.,
          138., 137., 138., 76., 137., 137., 135., 137., 98., 135., 137.,
          135., 137., 92. ]
      - [ 137., 138., 137., 138., 76., 137., 137., 135., 137., 98., 135.,
          137., 135., 137., 92., 137., 137., 136., 136., 90., 136., 138.,
          136., 136., 76. ]
      - [ 137., 137., 135., 137., 98., 135., 137., 135., 137., 92., 137.,
          137., 136., 136., 90., 136., 138., 136., 136., 76., 135., 136.,
          135., 135., 73. ]
      - [ 135., 137., 135., 137., 92., 137., 137., 136., 136., 90., 136.,
          138., 136., 136., 76., 135., 136., 135., 135., 73., 135., 136.,
          134., 134., 81. ]
      - [ 137., 137., 136., 136., 90., 136., 138., 136., 136., 76., 135.,
          136., 135., 135., 73., 135., 136., 134., 134., 81., 135., 135.,
          133., 133., 86. ]
      - [ 136., 138., 136., 136., 76., 135., 136., 135., 135., 73., 135.,
          136., 134., 134., 81., 135., 135., 133., 133., 86., 133., 134.,
          130., 130., 90. ]
      - [ 132., 133., 131., 132., 82., 131., 133., 129., 132., 86., 133.,
          133., 131., 132., 77., 132., 132., 131., 132., 53., 132., 134.,
          132., 133., 0. ]
      - [ 131., 133., 129., 132., 86., 133., 133., 131., 132., 77., 132.,
          132., 131., 132., 53., 132., 134., 132., 133., 0., 132., 132.,
          131., 132., 73. ]
      - [ 133., 133., 131., 132., 77., 132., 132., 131., 132., 53., 132.,
          134., 132., 133., 0., 132., 132., 131., 132., 73., 132., 132.,
          130., 131., 98. ]
      - [ 132., 132., 130., 131., 98., 130., 130., 127., 127., 88., 127.,
          128., 126., 128., 77., 127., 129., 127., 129., 70., 130., 132.,
          130., 132., 77. ]
      - [ 127., 128., 126., 128., 77., 127., 129., 127., 129., 70., 130.,
          132., 130., 132., 77., 133., 133., 131., 131., 72., 131., 133.,
          130., 133., 59. ]
      - [ 130., 132., 130., 132., 77., 133., 133., 131., 131., 72., 131.,
          133., 130., 133., 59., 134., 134., 130., 130., 63., 131., 132.,
          130., 132., 69. ]
      - [ 131., 132., 130., 132., 71., 132., 133., 132., 133., 90., 133.,
          135., 132., 135., 68., 135., 137., 135., 136., 81., 136., 137.,
          135., 136., 67. ]
      - [ 133., 135., 132., 135., 68., 135., 137., 135., 136., 81., 136.,
          137., 135., 136., 67., 136., 136., 133., 133., 80., 133., 134.,
          133., 134., 167. ]
      - [ 136., 136., 133., 133., 80., 133., 134., 133., 134., 167.,
          133., 133., 131., 132., 65., 132., 133., 131., 132., 70., 133.,
          134., 133., 134., 73. ]
      - [ 132., 133., 131., 132., 79., 135., 137., 135., 137., 90., 137.,
          137., 136., 137., 81., 137., 139., 137., 139., 39., 138., 139.,
          138., 139., 60. ]
      - [ 135., 137., 135., 137., 90., 137., 137., 136., 137., 81., 137.,
          139., 137., 139., 39., 138., 139., 138., 139., 60., 138., 138.,
          136., 137., 61. ]
      - [ 137., 137., 136., 137., 81., 137., 139., 137., 139., 39., 138.,
          139., 138., 139., 60., 138., 138., 136., 137., 61., 136., 137.,
          136., 136., 62. ]
      - [ 137., 139., 137., 139., 39., 138., 139., 138., 139., 60., 138.,
          138., 136., 137., 61., 136., 137., 136., 136., 62., 137., 137.,
          134., 135., 75. ]
      - [ 138., 139., 138., 139., 60., 138., 138., 136., 137., 61., 136.,
          137., 136., 136., 62., 137., 137., 134., 135., 75., 135., 135.,
          133., 134., 71. ]
      - [ 133., 135., 133., 135., 58., 135., 135., 134., 135., 60., 135.,
          136., 133., 135., 78., 135., 137., 135., 137., 80., 138., 139.,
          137., 138., 76. ]
      - [ 135., 135., 134., 135., 60., 135., 136., 133., 135., 78., 135.,
          137., 135., 137., 80., 138., 139., 137., 138., 76., 138., 138.,
          136., 136., 80. ]
      - [ 135., 136., 133., 135., 78., 135., 137., 135., 137., 80., 138.,
          139., 137., 138., 76., 138., 138., 136., 136., 80., 134., 135.,
          132., 134., 69. ]
      - [ 135., 137., 135., 137., 80., 138., 139., 137., 138., 76., 138.,
          138., 136., 136., 80., 134., 135., 132., 134., 69., 135., 135.,
          132., 133., 77. ]
      - [ 134., 135., 132., 134., 69., 135., 135., 132., 133., 77., 133.,
          133., 132., 132., 78., 135., 135., 134., 134., 88., 135., 138.,
          135., 138., 94. ]
      - [ 133., 133., 132., 132., 78., 135., 135., 134., 134., 88., 135.,
          138., 135., 138., 94., 138., 138., 137., 137., 63., 137., 138.,
          137., 137., 79. ]
      - [ 135., 135., 134., 134., 88., 135., 138., 135., 138., 94., 138.,
          138., 137., 137., 63., 137., 138., 137., 137., 79., 138., 138.,
          136., 136., 75. ]
      - [ 138., 138., 136., 136., 75., 135., 137., 134., 135., 80., 137.,
          139., 137., 138., 76., 139., 140., 139., 139., 65., 140., 141.,
          140., 141., 84. ]
      - [ 141., 142., 140., 141., 67., 140., 141., 140., 141., 66., 142.,
          143., 141., 143., 86., 143., 144., 143., 144., 71., 143., 144.,
          143., 144., 62. ]
      - [ 142., 143., 141., 143., 86., 143., 144., 143., 144., 71., 143.,
          144., 143., 144., 62., 144., 145., 143., 143., 68., 143., 144.,
          143., 144., 62. ]
      - [ 143., 143., 142., 143., 58., 142., 144., 142., 143., 56., 144.,
          144., 143., 144., 58., 143., 144., 143., 144., 57., 144., 144.,
          143., 144., 53. ]
      - [ 143., 144., 143., 144., 57., 144., 144., 143., 144., 53., 143.,
          143., 142., 142., 50., 143., 144., 142., 143., 59., 143., 144.,
          142., 144., 64. ]
      - [ 143., 144., 142., 143., 59., 143., 144., 142., 144., 64., 143.,
          144., 143., 143., 64., 144., 147., 144., 147., 85., 147., 147.,
          146., 147., 76. ]
      - [ 149., 149., 148., 149., 63., 149., 149., 148., 149., 75., 149.,
          149., 148., 149., 82., 148., 149., 148., 149., 80., 150., 150.,
          149., 149., 116. ]
      - [ 149., 149., 148., 149., 75., 149., 149., 148., 149., 82., 148.,
          149., 148., 149., 80., 150., 150., 149., 149., 116., 148.,
          148., 147., 148., 74. ]
      - [ 149., 149., 148., 149., 82., 148., 149., 148., 149., 80., 150.,
          150., 149., 149., 116., 148., 148., 147., 148., 74., 148.,
          149., 146., 146., 88. ]
      - [ 150., 150., 149., 149., 116., 148., 148., 147., 148., 74.,
          148., 149., 146., 146., 88., 146., 146., 144., 145., 76., 145.,
          147., 145., 147., 74. ]
      - [ 146., 147., 145., 146., 77., 146., 146., 145., 146., 70., 146.,
          147., 146., 147., 74., 147., 148., 146., 147., 68., 148., 148.,
          146., 147., 70. ]
      - [ 146., 146., 145., 146., 70., 146., 147., 146., 147., 74., 147.,
          148., 146., 147., 68., 148., 148., 146., 147., 70., 146., 146.,
          145., 145., 48. ]
      - [ 146., 147., 146., 147., 74., 147., 148., 146., 147., 68., 148.,
          148., 146., 147., 70., 146., 146., 145., 145., 48., 145., 145.,
          143., 143., 71. ]
      - [ 144., 144., 142., 142., 69., 142., 143., 142., 142., 65., 142.,
          143., 142., 143., 67., 144., 145., 143., 145., 76., 144., 145.,
          144., 145., 78. ]
      - [ 142., 143., 142., 142., 65., 142., 143., 142., 143., 67., 144.,
          145., 143., 145., 76., 144., 145., 144., 145., 78., 145., 145.,
          143., 143., 91. ]
      - [ 144., 145., 143., 145., 76., 144., 145., 144., 145., 78., 145.,
          145., 143., 143., 91., 143., 143., 140., 140., 101., 140.,
          141., 140., 141., 72. ]
      - [ 140., 140., 139., 139., 88., 140., 140., 139., 139., 85., 139.,
          140., 138., 139., 81., 139., 139., 138., 139., 80., 139., 141.,
          139., 141., 83. ]
      - [ 139., 139., 138., 139., 80., 139., 141., 139., 141., 83., 142.,
          142., 139., 139., 81., 139., 140., 139., 140., 64., 140., 141.,
          140., 140., 78. ]
      - [ 139., 141., 139., 141., 83., 142., 142., 139., 139., 81., 139.,
          140., 139., 140., 64., 140., 141., 140., 140., 78., 139., 139.,
          136., 137., 92. ]
      - [ 140., 141., 140., 140., 78., 139., 139., 136., 137., 92., 137.,
          137., 135., 135., 83., 134., 136., 134., 135., 79., 136., 136.,
          135., 135., 58. ]
      - [ 139., 139., 136., 137., 92., 137., 137., 135., 135., 83., 134.,
          136., 134., 135., 79., 136., 136., 135., 135., 58., 134., 135.,
          134., 134., 80. ]
      - [ 134., 136., 134., 136., 78., 135., 136., 134., 136., 69., 136.,
          136., 135., 136., 61., 137., 138., 137., 138., 28., 138., 139.,
          137., 139., 71. ]
      - [ 137., 139., 137., 139., 75., 140., 141., 140., 140., 77., 140.,
          141., 140., 140., 99., 141., 141., 140., 140., 73., 140., 140.,
          139., 140., 78. ]
      - [ 138., 140., 138., 139., 75., 140., 140., 138., 139., 70., 138.,
          140., 138., 139., 65., 140., 141., 140., 141., 85., 142., 142.,
          140., 141., 77. ]
      - [ 140., 140., 138., 139., 70., 138., 140., 138., 139., 65., 140.,
          141., 140., 141., 85., 142., 142., 140., 141., 77., 140., 141.,
          139., 139., 81. ]
      - [ 142., 142., 140., 141., 77., 140., 141., 139., 139., 81., 139.,
          139., 138., 138., 79., 139., 140., 138., 140., 85., 141., 143.,
          141., 143., 90. ]
      - [ 139., 139., 138., 138., 79., 139., 140., 138., 140., 85., 141.,
          143., 141., 143., 90., 143., 143., 142., 142., 86., 142., 143.,
          142., 142., 74. ]
      - [ 139., 140., 138., 140., 85., 141., 143., 141., 143., 90., 143.,
          143., 142., 142., 86., 142., 143., 142., 142., 74., 140., 141.,
          140., 141., 132. ]
      - [ 141., 143., 141., 143., 90., 143., 143., 142., 142., 86., 142.,
          143., 142., 142., 74., 140., 141., 140., 141., 132., 141.,
          141., 140., 140., 19. ]
      - [ 142., 143., 142., 142., 74., 140., 141., 140., 141., 132.,
          141., 141., 140., 140., 19., 140., 141., 139., 139., 42., 139.,
          139., 137., 139., 56. ]
      - [ 138., 141., 137., 141., 67., 144., 145., 144., 145., 95., 145.,
          146., 144., 145., 78., 145., 145., 144., 145., 76., 144., 145.,
          144., 145., 74. ]
      - [ 145., 145., 144., 144., 76., 145., 145., 145., 145., 76., 146.,
          146., 145., 146., 77., 146., 146., 146., 146., 78., 146., 146.,
          145., 146., 83. ]
      - [ 145., 146., 145., 146., 74., 146., 147., 146., 147., 78., 146.,
          147., 146., 147., 82., 147., 147., 146., 147., 79., 148., 148.,
          147., 148., 74. ]
      - [ 148., 148., 147., 148., 74., 146., 148., 146., 146., 92., 147.,
          148., 147., 147., 85., 147., 148., 147., 148., 86., 147., 148.,
          147., 148., 92. ]
      - [ 147., 148., 147., 148., 86., 147., 148., 147., 148., 92., 148.,
          148., 147., 147., 90., 147., 148., 147., 147., 99., 148., 149.,
          148., 149., 90. ]
      - [ 147., 149., 147., 148., 97., 148., 149., 148., 148., 89., 148.,
          148., 147., 148., 87., 149., 150., 149., 150., 80., 150., 150.,
          149., 150., 67. ]
      - [ 149., 150., 149., 149., 79., 150., 150., 149., 150., 80., 149.,
          150., 149., 150., 86., 150., 150., 149., 150., 82., 150., 151.,
          150., 151., 81. ]
      - [ 150., 150., 149., 150., 80., 149., 150., 149., 150., 86., 150.,
          150., 149., 150., 82., 150., 151., 150., 151., 81., 151., 151.,
          148., 148., 89. ]
      - [ 150., 150., 149., 150., 82., 150., 151., 150., 151., 81., 151.,
          151., 148., 148., 89., 148., 148., 146., 146., 92., 147., 148.,
          147., 148., 68. ]
      - [ 150., 151., 150., 151., 84., 152., 152., 151., 151., 77., 151.,
          152., 151., 152., 73., 152., 152., 151., 152., 70., 152., 153.,
          152., 153., 71. ]
      - [ 152., 152., 151., 152., 70., 152., 153., 152., 153., 71., 152.,
          152., 151., 152., 73., 152., 153., 151., 152., 68., 153., 153.,
          152., 153., 72. ]
      - [ 152., 152., 151., 152., 73., 152., 153., 151., 152., 68., 153.,
          153., 152., 153., 72., 153., 153., 152., 152., 105., 151.,
          152., 150., 152., 67. ]
      - [ 153., 153., 152., 153., 72., 153., 153., 152., 152., 105.,
          151., 152., 150., 152., 67., 152., 153., 150., 151., 74., 153.,
          153., 152., 153., 69. ]
      - [ 152., 152., 151., 152., 73., 153., 153., 151., 152., 72., 152.,
          153., 152., 153., 61., 151., 153., 151., 153., 60., 153., 153.,
          153., 153., 71. ]
      - [ 152., 153., 152., 153., 61., 151., 153., 151., 153., 60., 153.,
          153., 153., 153., 71., 153., 153., 151., 152., 63., 153., 153.,
          152., 153., 68. ]
      - [ 153., 153., 153., 153., 71., 153., 153., 151., 152., 63., 153.,
          153., 152., 153., 68., 153., 153., 150., 151., 80., 151., 151.,
          150., 151., 63. ]
      - [ 150., 151., 150., 151., 55., 151., 152., 151., 152., 64., 152.,
          155., 152., 155., 78., 154., 155., 154., 155., 81., 155., 155.,
          153., 155., 63. ]
      - [ 152., 155., 152., 155., 78., 154., 155., 154., 155., 81., 155.,
          155., 153., 155., 63., 154., 154., 151., 151., 78., 152., 153.,
          151., 153., 65. ]
      - [ 154., 155., 154., 155., 81., 155., 155., 153., 155., 63., 154.,
          154., 151., 151., 78., 152., 153., 151., 153., 65., 152., 152.,
          149., 150., 84. ]
      - [ 153., 154., 153., 153., 76., 154., 155., 154., 154., 90., 154.,
          154., 153., 154., 75., 154., 156., 154., 155., 69., 155., 156.,
          155., 156., 89. ]
      - [ 155., 157., 155., 157., 77., 159., 159., 159., 159., 76., 159.,
          160., 159., 160., 64., 160., 160., 159., 160., 75., 160., 161.,
          159., 161., 77. ]
      - [ 160., 161., 160., 160., 81., 161., 162., 161., 162., 74., 161.,
          162., 161., 162., 70., 162., 163., 162., 163., 80., 163., 164.,
          163., 164., 81. ]
      - [ 163., 164., 163., 164., 81., 164., 164., 163., 163., 87., 164.,
          165., 164., 165., 81., 165., 166., 164., 165., 76., 165., 166.,
          164., 165., 78. ]
      - [ 165., 166., 164., 165., 78., 165., 167., 162., 163., 98., 161.,
          163., 161., 163., 80., 162., 163., 161., 163., 61., 165., 166.,
          164., 164., 77. ]
      - [ 161., 163., 161., 163., 80., 162., 163., 161., 163., 61., 165.,
          166., 164., 164., 77., 164., 164., 163., 163., 79., 164., 165.,
          164., 165., 76. ]
      - [ 165., 166., 164., 164., 77., 164., 164., 163., 163., 79., 164.,
          165., 164., 165., 76., 164., 165., 163., 163., 88., 163., 163.,
          161., 163., 92. ]
      - [ 164., 164., 163., 163., 79., 164., 165., 164., 165., 76., 164.,
          165., 163., 163., 88., 163., 163., 161., 163., 92., 163., 164.,
          162., 162., 83. ]
      - [ 163., 164., 162., 162., 83., 162., 162., 160., 160., 80., 160.,
          161., 159., 161., 79., 162., 164., 161., 163., 71., 164., 164.,
          163., 164., 67. ]
      - [ 162., 162., 160., 160., 80., 160., 161., 159., 161., 79., 162.,
          164., 161., 163., 71., 164., 164., 163., 164., 67., 162., 163.,
          161., 162., 67. ]
      - [ 162., 164., 161., 163., 71., 164., 164., 163., 164., 67., 162.,
          163., 161., 162., 67., 163., 163., 160., 160., 71., 160., 163.,
          159., 162., 68. ]
      - [ 163., 163., 160., 160., 71., 160., 163., 159., 162., 68., 162.,
          162., 161., 161., 62., 163., 163., 162., 163., 68., 163., 164.,
          163., 164., 73. ]
      - [ 160., 163., 159., 162., 68., 162., 162., 161., 161., 62., 163.,
          163., 162., 163., 68., 163., 164., 163., 164., 73., 164., 164.,
          162., 162., 72. ]
      - [ 163., 163., 162., 163., 68., 163., 164., 163., 164., 73., 164.,
          164., 162., 162., 72., 160., 161., 158., 158., 91., 158., 159.,
          156., 158., 136. ]
      - [ 169., 170., 169., 170., 70., 170., 171., 170., 170., 61., 171.,
          171., 170., 170., 69., 171., 171., 170., 171., 67., 171., 171.,
          170., 171., 75. ]
      - [ 171., 171., 170., 170., 69., 171., 171., 170., 171., 67., 171.,
          171., 170., 171., 75., 169., 170., 169., 169., 78., 170., 170.,
          169., 170., 64. ]
      - [ 170., 170., 169., 170., 64., 170., 170., 169., 169., 70., 170.,
          170., 169., 169., 82., 170., 170., 169., 170., 100., 169.,
          171., 169., 171., 79. ]
      - [ 171., 172., 170., 171., 77., 172., 173., 171., 171., 86., 173.,
          174., 173., 174., 82., 174., 175., 173., 175., 73., 174., 175.,
          174., 175., 63. ]
      - [ 174., 175., 173., 175., 73., 174., 175., 174., 175., 63., 174.,
          175., 173., 173., 61., 173., 173., 172., 173., 72., 174., 174.,
          173., 174., 74. ]
      - [ 174., 174., 173., 174., 74., 173., 174., 173., 173., 66., 172.,
          174., 172., 174., 60., 174., 175., 173., 174., 71., 174., 174.,
          174., 174., 69. ]
      - [ 174., 174., 174., 174., 69., 171., 171., 170., 170., 76., 170.,
          171., 170., 170., 65., 170., 171., 170., 170., 58., 170., 171.,
          170., 171., 54. ]
      - [ 170., 171., 170., 171., 54., 170., 172., 170., 170., 61., 171.,
          172., 171., 172., 35., 173., 173., 172., 173., 64., 173., 174.,
          173., 173., 59. ]
      - [ 173., 173., 172., 173., 64., 173., 174., 173., 173., 59., 171.,
          172., 169., 169., 71., 169., 170., 169., 170., 58., 169., 172.,
          169., 171., 56. ]
      - [ 171., 173., 171., 173., 82., 173., 173., 173., 173., 67., 174.,
          174., 171., 173., 72., 174., 176., 174., 175., 72., 176., 177.,
          176., 177., 81. ]
      - [ 176., 176., 175., 176., 62., 178., 178., 176., 176., 66., 176.,
          178., 176., 177., 56., 178., 180., 177., 179., 81., 180., 180.,
          179., 180., 78. ]
      - [ 178., 178., 176., 176., 66., 176., 178., 176., 177., 56., 178.,
          180., 177., 179., 81., 180., 180., 179., 180., 78., 180., 180.,
          179., 179., 125. ]
      - [ 178., 180., 177., 179., 81., 180., 180., 179., 180., 78., 180.,
          180., 179., 179., 125., 180., 180., 177., 178., 76., 179.,
          180., 178., 179., 80. ]
      - [ 180., 180., 179., 179., 125., 180., 180., 177., 178., 76.,
          179., 180., 178., 179., 80., 179., 179., 178., 178., 80., 179.,
          180., 179., 180., 80. ]
      - [ 179., 180., 179., 180., 80., 179., 180., 178., 179., 74., 177.,
          179., 177., 179., 84., 179., 181., 179., 181., 81., 180., 181.,
          180., 181., 79. ]
      - [ 177., 179., 177., 179., 84., 179., 181., 179., 181., 81., 180.,
          181., 180., 181., 79., 181., 181., 178., 179., 83., 179., 181.,
          179., 181., 67. ]
      - [ 179., 181., 179., 181., 81., 180., 181., 180., 181., 79., 181.,
          181., 178., 179., 83., 179., 181., 179., 181., 67., 179., 180.,
          179., 179., 63. ]
      - [ 180., 181., 180., 181., 79., 181., 181., 178., 179., 83., 179.,
          181., 179., 181., 67., 179., 180., 179., 179., 63., 179., 179.,
          175., 175., 94. ]
      - [ 179., 179., 175., 175., 94., 175., 175., 173., 174., 102.,
          176., 178., 176., 178., 84., 178., 180., 178., 180., 77., 179.,
          181., 178., 181., 62. ]
      - [ 181., 182., 181., 182., 76., 181., 183., 181., 183., 88., 185.,
          186., 184., 186., 86., 186., 187., 186., 186., 73., 187., 188.,
          185., 187., 84. ]
      - [ 186., 186., 185., 186., 85., 186., 187., 186., 187., 92., 188.,
          188., 187., 187., 101., 187., 188., 187., 187., 85., 188.,
          188., 187., 188., 84. ]
      - [ 186., 187., 186., 187., 92., 188., 188., 187., 187., 101.,
          187., 188., 187., 187., 85., 188., 188., 187., 188., 84., 188.,
          189., 186., 187., 85. ]
      - [ 186., 188., 186., 186., 96., 187., 187., 185., 186., 87., 187.,
          187., 186., 187., 80., 187., 188., 186., 187., 86., 188., 188.,
          186., 187., 90. ]
      - [ 186., 187., 185., 186., 69., 186., 186., 185., 186., 78., 185.,
          189., 185., 189., 81., 188., 189., 188., 189., 88., 189., 190.,
          189., 190., 84. ]
      - [ 186., 186., 185., 186., 78., 185., 189., 185., 189., 81., 188.,
          189., 188., 189., 88., 189., 190., 189., 190., 84., 190., 190.,
          187., 188., 81. ]
      - [ 185., 189., 185., 189., 81., 188., 189., 188., 189., 88., 189.,
          190., 189., 190., 84., 190., 190., 187., 188., 81., 188., 188.,
          186., 187., 77. ]
      - [ 191., 191., 190., 190., 79., 190., 192., 190., 191., 85., 192.,
          193., 191., 193., 63., 193., 194., 193., 193., 31., 194., 194.,
          192., 193., 73. ]
      - [ 192., 193., 191., 192., 83., 191., 193., 191., 192., 84., 192.,
          193., 192., 192., 83., 194., 194., 192., 193., 76., 194., 194.,
          194., 194., 75. ]
      - [ 191., 193., 191., 192., 84., 192., 193., 192., 192., 83., 194.,
          194., 192., 193., 76., 194., 194., 194., 194., 75., 193., 194.,
          193., 193., 82. ]
      - [ 193., 194., 193., 193., 82., 193., 194., 190., 190., 85., 191.,
          191., 190., 190., 84., 191., 191., 190., 190., 70., 191., 192.,
          191., 192., 86. ]
      - [ 191., 191., 190., 190., 84., 191., 191., 190., 190., 70., 191.,
          192., 191., 192., 86., 192., 192., 191., 191., 82., 192., 194.,
          189., 194., 98. ]
      - [ 193., 194., 193., 193., 80., 194., 196., 194., 196., 166.,
          197., 198., 197., 198., 78., 198., 198., 198., 198., 29., 199.,
          199., 198., 199., 48. ]
      - [ 198., 198., 198., 198., 29., 199., 199., 198., 199., 48., 199.,
          199., 198., 198., 52., 198., 198., 197., 198., 56., 198., 199.,
          198., 199., 59. ]
      - [ 199., 199., 198., 199., 48., 199., 199., 198., 198., 52., 198.,
          198., 197., 198., 56., 198., 199., 198., 199., 59., 198., 198.,
          197., 198., 76. ]
      - [ 199., 199., 198., 198., 52., 198., 198., 197., 198., 56., 198.,
          199., 198., 199., 59., 198., 198., 197., 198., 76., 198., 198.,
          197., 197., 73. ]
      - [ 198., 198., 197., 198., 76., 198., 198., 197., 197., 73., 197.,
          197., 196., 196., 104., 197., 198., 197., 198., 103., 198.,
          199., 198., 199., 107. ]
      - [ 197., 197., 196., 196., 104., 197., 198., 197., 198., 103.,
          198., 199., 198., 199., 107., 199., 200., 198., 198., 100.,
          199., 199., 197., 199., 97. ]
      - [ 199., 199., 197., 199., 97., 199., 199., 195., 196., 106.,
          197., 200., 197., 200., 91., 200., 201., 200., 201., 94., 201.,
          201., 201., 201., 90. ]
      - [ 200., 201., 200., 201., 94., 201., 201., 201., 201., 90., 201.,
          201., 200., 200., 97., 202., 202., 200., 202., 91., 202., 203.,
          202., 203., 91. ]
      - [ 201., 201., 201., 201., 90., 201., 201., 200., 200., 97., 202.,
          202., 200., 202., 91., 202., 203., 202., 203., 91., 202., 202.,
          200., 201., 99. ]
      - [ 201., 201., 200., 200., 97., 202., 202., 200., 202., 91., 202.,
          203., 202., 203., 91., 202., 202., 200., 201., 99., 200., 200.,
          197., 197., 114. ]
      - [ 202., 203., 202., 203., 91., 202., 202., 200., 201., 99., 200.,
          200., 197., 197., 114., 197., 197., 193., 195., 109., 194.,
          195., 194., 195., 94. ]
      - [ 200., 200., 197., 197., 114., 197., 197., 193., 195., 109.,
          194., 195., 194., 195., 94., 193., 195., 193., 193., 101.,
          195., 197., 195., 197., 98. ]
      - [ 197., 197., 193., 195., 109., 194., 195., 194., 195., 94.,
          193., 195., 193., 193., 101., 195., 197., 195., 197., 98.,
          194., 197., 194., 196., 104. ]
      - [ 193., 195., 193., 193., 101., 195., 197., 195., 197., 98.,
          194., 197., 194., 196., 104., 196., 196., 190., 190., 120.,
          191., 193., 191., 192., 98. ]
      - [ 198., 200., 198., 200., 89., 200., 201., 200., 200., 91., 199.,
          202., 199., 202., 102., 202., 203., 202., 203., 83., 203.,
          204., 203., 204., 84. ]
      - [ 204., 206., 204., 205., 97., 205., 206., 204., 205., 96., 205.,
          206., 204., 205., 95., 205., 207., 205., 206., 92., 207., 208.,
          204., 206., 121. ]
      - [ 207., 208., 204., 206., 121., 204., 205., 202., 204., 93.,
          207., 208., 207., 208., 113., 208., 209., 208., 208., 100.,
          209., 209., 208., 208., 96. ]
      - [ 207., 208., 207., 208., 113., 208., 209., 208., 208., 100.,
          209., 209., 208., 208., 96., 209., 209., 206., 207., 98., 207.,
          207., 206., 207., 95. ]
      - [ 209., 209., 208., 208., 96., 209., 209., 206., 207., 98., 207.,
          207., 206., 207., 95., 208., 208., 205., 206., 113., 205.,
          207., 204., 207., 96. ]
      - [ 205., 207., 204., 207., 96., 207., 207., 203., 203., 109.,
          203., 204., 203., 203., 99., 204., 206., 204., 204., 80., 205.,
          207., 205., 207., 87. ]
      - [ 203., 204., 203., 203., 99., 204., 206., 204., 204., 80., 205.,
          207., 205., 207., 87., 207., 207., 205., 206., 89., 205., 207.,
          205., 206., 82. ]
      - [ 204., 206., 204., 204., 80., 205., 207., 205., 207., 87., 207.,
          207., 205., 206., 89., 205., 207., 205., 206., 82., 207., 208.,
          204., 204., 152. ]
      - [ 207., 207., 205., 206., 89., 205., 207., 205., 206., 82., 207.,
          208., 204., 204., 152., 205., 205., 200., 202., 111., 203.,
          204., 201., 202., 103. ]
      - [ 205., 207., 205., 206., 82., 207., 208., 204., 204., 152.,
          205., 205., 200., 202., 111., 203., 204., 201., 202., 103.,
          203., 204., 199., 199., 112. ]
      - [ 199., 200., 197., 198., 103., 199., 201., 198., 198., 91.,
          200., 201., 199., 200., 94., 201., 204., 201., 204., 97., 205.,
          205., 203., 204., 99. ]
      - [ 199., 201., 198., 198., 91., 200., 201., 199., 200., 94., 201.,
          204., 201., 204., 97., 205., 205., 203., 204., 99., 205., 205.,
          201., 202., 93. ]
      - [ 200., 201., 199., 200., 94., 201., 204., 201., 204., 97., 205.,
          205., 203., 204., 99., 205., 205., 201., 202., 93., 204., 204.,
          196., 197., 121. ]
      - [ 205., 205., 201., 202., 93., 204., 204., 196., 197., 121.,
          196., 197., 193., 194., 117., 195., 196., 194., 196., 99.,
          197., 200., 196., 200., 87. ]
      - [ 204., 204., 196., 197., 121., 196., 197., 193., 194., 117.,
          195., 196., 194., 196., 99., 197., 200., 196., 200., 87., 199.,
          200., 192., 193., 111. ]
      - [ 192., 193., 188., 192., 110., 194., 195., 192., 195., 82.,
          194., 196., 194., 195., 87., 196., 196., 194., 196., 66., 197.,
          199., 197., 198., 83. ]
      - [ 194., 196., 194., 195., 87., 196., 196., 194., 196., 66., 197.,
          199., 197., 198., 83., 198., 198., 197., 197., 79., 199., 199.,
          196., 198., 96. ]
      - [ 195., 196., 194., 196., 85., 195., 196., 194., 196., 97., 196.,
          198., 196., 197., 93., 197., 198., 196., 197., 81., 195., 197.,
          195., 197., 67. ]
      - [ 196., 198., 196., 197., 93., 197., 198., 196., 197., 81., 195.,
          197., 195., 197., 67., 197., 197., 194., 194., 82., 195., 195.,
          191., 194., 114. ]
      - [ 197., 197., 194., 194., 82., 195., 195., 191., 194., 114.,
          193., 196., 192., 193., 110., 192., 194., 192., 194., 88.,
          195., 198., 195., 198., 83. ]
      - [ 195., 195., 191., 194., 114., 193., 196., 192., 193., 110.,
          192., 194., 192., 194., 88., 195., 198., 195., 198., 83., 198.,
          198., 197., 197., 85. ]
      - [ 193., 196., 192., 193., 110., 192., 194., 192., 194., 88.,
          195., 198., 195., 198., 83., 198., 198., 197., 197., 85., 196.,
          197., 195., 195., 77. ]
      - [ 198., 198., 197., 197., 85., 196., 197., 195., 195., 77., 195.,
          195., 192., 194., 94., 194., 195., 193., 195., 76., 194., 197.,
          194., 197., 69. ]
      - [ 198., 200., 198., 200., 66., 201., 202., 201., 202., 80., 202.,
          202., 201., 202., 78., 202., 203., 202., 203., 75., 203., 203.,
          202., 203., 84. ]
      - [ 203., 205., 203., 205., 86., 206., 207., 206., 207., 70., 207.,
          208., 206., 207., 78., 207., 207., 206., 207., 79., 207., 207.,
          206., 207., 78. ]
      - [ 207., 207., 205., 205., 85., 206., 206., 205., 206., 77., 206.,
          207., 205., 207., 73., 206., 208., 206., 207., 80., 208., 209.,
          206., 209., 82. ]
      - [ 206., 208., 206., 207., 80., 208., 209., 206., 209., 82., 209.,
          209., 207., 208., 82., 209., 209., 208., 209., 126., 209.,
          209., 208., 209., 75. ]
      - [ 209., 210., 209., 210., 189., 210., 211., 210., 211., 82.,
          212., 214., 212., 213., 86., 213., 214., 213., 213., 69., 214.,
          215., 214., 215., 39. ]
      - [ 210., 211., 210., 211., 82., 212., 214., 212., 213., 86., 213.,
          214., 213., 213., 69., 214., 215., 214., 215., 39., 214., 214.,
          213., 213., 74. ]
      - [ 213., 214., 213., 213., 69., 214., 215., 214., 215., 39., 214.,
          214., 213., 213., 74., 213., 213., 209., 210., 101., 211.,
          212., 210., 211., 76. ]
      - [ 213., 213., 209., 210., 101., 211., 212., 210., 211., 76.,
          208., 211., 208., 210., 73., 211., 211., 210., 211., 65., 213.,
          213., 212., 213., 68. ]
      - [ 208., 211., 208., 210., 73., 211., 211., 210., 211., 65., 213.,
          213., 212., 213., 68., 213., 213., 210., 211., 78., 213., 213.,
          211., 212., 92. ]
      - [ 209., 212., 209., 212., 80., 212., 212., 211., 212., 67., 213.,
          214., 213., 213., 75., 214., 215., 213., 214., 85., 215., 215.,
          214., 214., 86. ]
      - [ 215., 215., 214., 214., 86., 213., 213., 212., 213., 75., 213.,
          213., 211., 213., 78., 213., 214., 213., 213., 94., 214., 214.,
          213., 214., 83. ]
      - [ 213., 213., 212., 213., 75., 213., 213., 211., 213., 78., 213.,
          214., 213., 213., 94., 214., 214., 213., 214., 83., 212., 212.,
          209., 209., 103. ]
      - [ 213., 214., 213., 213., 94., 214., 214., 213., 214., 83., 212.,
          212., 209., 209., 103., 209., 210., 207., 208., 92., 209.,
          210., 208., 210., 73. ]
      - [ 212., 212., 209., 209., 103., 209., 210., 207., 208., 92.,
          209., 210., 208., 210., 73., 209., 210., 207., 208., 85., 207.,
          209., 207., 208., 80. ]
      - [ 209., 210., 207., 208., 85., 207., 209., 207., 208., 80., 209.,
          209., 207., 207., 83., 208., 209., 207., 209., 77., 210., 211.,
          210., 211., 66. ]
      - [ 217., 217., 216., 217., 60., 217., 218., 217., 217., 55., 219.,
          219., 218., 218., 58., 219., 219., 218., 219., 63., 219., 219.,
          219., 219., 58. ]
      - [ 219., 219., 218., 219., 63., 219., 219., 219., 219., 58., 218.,
          219., 218., 218., 54., 219., 220., 218., 220., 57., 220., 221.,
          219., 221., 82. ]
      - [ 220., 221., 219., 221., 82., 221., 221., 219., 219., 84., 220.,
          221., 218., 219., 76., 219., 220., 218., 220., 71., 220., 221.,
          219., 220., 73. ]
      - [ 219., 220., 218., 220., 71., 220., 221., 219., 220., 73., 220.,
          221., 218., 218., 87., 218., 220., 218., 220., 80., 219., 220.,
          219., 220., 74. ]
      - [ 220., 221., 219., 220., 73., 220., 221., 218., 218., 87., 218.,
          220., 218., 220., 80., 219., 220., 219., 220., 74., 220., 220.,
          218., 219., 78. ]
      - [ 219., 219., 216., 217., 86., 216., 218., 216., 218., 83., 218.,
          220., 218., 219., 79., 219., 220., 219., 220., 78., 221., 221.,
          219., 220., 149. ]
      - [ 216., 218., 216., 218., 83., 218., 220., 218., 219., 79., 219.,
          220., 219., 220., 78., 221., 221., 219., 220., 149., 219.,
          219., 216., 217., 83. ]
      - [ 219., 220., 219., 220., 78., 221., 221., 219., 220., 149.,
          219., 219., 216., 217., 83., 216., 217., 216., 216., 82., 216.,
          218., 216., 218., 77. ]
      - [ 216., 217., 216., 216., 82., 216., 218., 216., 218., 77., 218.,
          218., 214., 214., 86., 214., 216., 214., 216., 71., 214., 216.,
          214., 216., 76. ]
      - [ 216., 218., 216., 218., 77., 218., 218., 214., 214., 86., 214.,
          216., 214., 216., 71., 214., 216., 214., 216., 76., 216., 217.,
          215., 215., 99. ]
      - [ 214., 216., 214., 216., 76., 216., 217., 215., 215., 99., 215.,
          215., 211., 212., 105., 212., 213., 209., 212., 98., 213.,
          215., 213., 214., 78. ]
      - [ 216., 217., 215., 215., 99., 215., 215., 211., 212., 105.,
          212., 213., 209., 212., 98., 213., 215., 213., 214., 78., 215.,
          215., 213., 213., 81. ]
      - [ 212., 213., 209., 212., 98., 213., 215., 213., 214., 78., 215.,
          215., 213., 213., 81., 212., 213., 210., 210., 95., 210., 214.,
          208., 214., 112. ]
      - [ 213., 215., 213., 214., 78., 215., 215., 213., 213., 81., 212.,
          213., 210., 210., 95., 210., 214., 208., 214., 112., 213.,
          214., 209., 209., 103. ]
      - [ 215., 215., 213., 213., 81., 212., 213., 210., 210., 95., 210.,
          214., 208., 214., 112., 213., 214., 209., 209., 103., 208.,
          210., 204., 204., 128. ]
      - [ 210., 214., 208., 214., 112., 213., 214., 209., 209., 103.,
          208., 210., 204., 204., 128., 204., 206., 201., 201., 113.,
          203., 205., 201., 202., 114. ]
      - [ 198., 202., 196., 201., 143., 197., 203., 197., 201., 119.,
          204., 205., 203., 203., 102., 203., 206., 203., 206., 75.,
          208., 211., 208., 211., 89. ]
      - [ 212., 212., 210., 210., 88., 212., 214., 212., 213., 87., 214.,
          215., 213., 215., 77., 214., 215., 213., 215., 68., 216., 219.,
          216., 219., 88. ]
      - [ 216., 219., 216., 219., 88., 218., 219., 216., 218., 99., 217.,
          219., 217., 219., 91., 223., 223., 221., 222., 111., 222.,
          223., 222., 223., 91. ]
      - [ 223., 223., 221., 222., 111., 222., 223., 222., 223., 91.,
          222., 222., 220., 222., 86., 223., 223., 221., 222., 89., 221.,
          223., 221., 223., 89. ]
      - [ 222., 223., 222., 223., 81., 223., 224., 223., 224., 72., 223.,
          225., 223., 224., 78., 225., 226., 224., 225., 82., 225., 225.,
          224., 225., 76. ]
      - [ 223., 225., 223., 224., 78., 225., 226., 224., 225., 82., 225.,
          225., 224., 225., 76., 225., 225., 223., 224., 74., 224., 226.,
          224., 226., 72. ]
      - [ 228., 228., 226., 226., 82., 227., 228., 227., 228., 68., 229.,
          229., 228., 229., 75., 229., 230., 229., 230., 57., 231., 231.,
          230., 230., 39. ]
      - [ 230., 230., 227., 227., 84., 227., 229., 227., 228., 81., 229.,
          230., 228., 229., 76., 229., 230., 228., 229., 75., 230., 230.,
          229., 230., 78. ]
      - [ 229., 230., 228., 229., 76., 229., 230., 228., 229., 75., 230.,
          230., 229., 230., 78., 229., 230., 227., 228., 88., 225., 229.,
          224., 229., 87. ]
      - [ 230., 230., 229., 230., 78., 229., 230., 227., 228., 88., 225.,
          229., 224., 229., 87., 228., 229., 225., 225., 82., 226., 229.,
          226., 226., 83. ]
      - [ 229., 230., 227., 228., 88., 225., 229., 224., 229., 87., 228.,
          229., 225., 225., 82., 226., 229., 226., 226., 83., 224., 226.,
          223., 223., 84. ]
      - [ 225., 229., 224., 229., 87., 228., 229., 225., 225., 82., 226.,
          229., 226., 226., 83., 224., 226., 223., 223., 84., 225., 225.,
          220., 221., 97. ]
      - [ 219., 223., 218., 218., 101., 218., 223., 218., 223., 103.,
          226., 228., 226., 228., 98., 228., 230., 228., 229., 154.,
          229., 230., 229., 230., 75. ]
      - [ 229., 230., 229., 230., 75., 231., 231., 229., 229., 69., 229.,
          230., 229., 229., 25., 230., 231., 230., 231., 35., 231., 231.,
          231., 231., 50. ]
      - [ 231., 231., 229., 229., 69., 229., 230., 229., 229., 25., 230.,
          231., 230., 231., 35., 231., 231., 231., 231., 50., 230., 231.,
          229., 230., 52. ]
      - [ 230., 231., 230., 231., 35., 231., 231., 231., 231., 50., 230.,
          231., 229., 230., 52., 230., 231., 227., 227., 65., 229., 230.,
          226., 227., 61. ]
      - [ 231., 231., 231., 231., 50., 230., 231., 229., 230., 52., 230.,
          231., 227., 227., 65., 229., 230., 226., 227., 61., 226., 226.,
          223., 223., 79. ]
      - [ 229., 230., 226., 227., 61., 226., 226., 223., 223., 79., 224.,
          224., 219., 220., 98., 222., 223., 221., 223., 87., 225., 228.,
          225., 227., 95. ]
      - [ 226., 226., 223., 223., 79., 224., 224., 219., 220., 98., 222.,
          223., 221., 223., 87., 225., 228., 225., 227., 95., 228., 228.,
          225., 226., 75. ]
      - [ 222., 223., 221., 223., 87., 225., 228., 225., 227., 95., 228.,
          228., 225., 226., 75., 226., 226., 223., 224., 82., 226., 228.,
          222., 224., 97. ]
      - [ 225., 228., 225., 227., 95., 228., 228., 225., 226., 75., 226.,
          226., 223., 224., 82., 226., 228., 222., 224., 97., 221., 223.,
          220., 223., 93. ]
      - [ 223., 224., 221., 223., 81., 223., 225., 222., 224., 82., 225.,
          228., 223., 228., 89., 228., 229., 228., 229., 72., 228., 229.,
          227., 229., 75. ]
      - [ 223., 225., 222., 224., 82., 225., 228., 223., 228., 89., 228.,
          229., 228., 229., 72., 228., 229., 227., 229., 75., 226., 227.,
          224., 225., 87. ]
      - [ 228., 229., 228., 229., 72., 228., 229., 227., 229., 75., 226.,
          227., 224., 225., 87., 228., 228., 222., 223., 95., 222., 225.,
          221., 225., 95. ]
      - [ 228., 228., 222., 223., 95., 222., 225., 221., 225., 95., 224.,
          226., 222., 222., 103., 223., 224., 220., 224., 90., 225.,
          227., 224., 227., 97. ]
      - [ 224., 226., 222., 222., 103., 223., 224., 220., 224., 90.,
          225., 227., 224., 227., 97., 226., 228., 226., 226., 100.,
          227., 229., 227., 229., 91. ]
      - [ 223., 224., 220., 224., 90., 225., 227., 224., 227., 97., 226.,
          228., 226., 226., 100., 227., 229., 227., 229., 91., 229.,
          230., 227., 228., 91. ]
      - [ 237., 239., 236., 239., 77., 238., 239., 238., 239., 77., 239.,
          239., 238., 239., 81., 239., 240., 239., 239., 82., 239., 240.,
          239., 240., 85. ]
      - [ 239., 239., 238., 239., 81., 239., 240., 239., 239., 82., 239.,
          240., 239., 240., 85., 240., 240., 239., 239., 87., 239., 241.,
          239., 241., 86. ]
      - [ 239., 240., 239., 239., 82., 239., 240., 239., 240., 85., 240.,
          240., 239., 239., 87., 239., 241., 239., 241., 86., 240., 241.,
          239., 240., 90. ]
      - [ 240., 240., 239., 239., 87., 239., 241., 239., 241., 86., 240.,
          241., 239., 240., 90., 239., 239., 238., 239., 80., 240., 240.,
          239., 240., 75. ]
      - [ 240., 241., 239., 240., 90., 239., 239., 238., 239., 80., 240.,
          240., 239., 240., 75., 239., 240., 237., 237., 85., 238., 238.,
          237., 238., 74. ]
      - [ 239., 239., 238., 239., 80., 240., 240., 239., 240., 75., 239.,
          240., 237., 237., 85., 238., 238., 237., 238., 74., 236., 236.,
          234., 234., 83. ]
      - [ 239., 240., 237., 237., 85., 238., 238., 237., 238., 74., 236.,
          236., 234., 234., 83., 234., 235., 233., 233., 82., 233., 236.,
          233., 235., 82. ]
      - [ 236., 237., 235., 237., 75., 236., 238., 236., 238., 75., 237.,
          241., 236., 240., 88., 240., 241., 240., 240., 73., 242., 243.,
          242., 242., 131. ]
      - [ 237., 241., 236., 240., 88., 240., 241., 240., 240., 73., 242.,
          243., 242., 242., 131., 242., 242., 241., 241., 70., 241.,
          242., 241., 241., 70. ]
      - [ 240., 241., 240., 240., 73., 242., 243., 242., 242., 131.,
          242., 242., 241., 241., 70., 241., 242., 241., 241., 70., 241.,
          241., 235., 235., 100. ]
      - [ 241., 242., 241., 241., 70., 241., 241., 235., 235., 100.,
          233., 235., 232., 234., 90., 234., 236., 234., 235., 73., 237.,
          238., 237., 238., 78. ]
      - [ 241., 241., 235., 235., 100., 233., 235., 232., 234., 90.,
          234., 236., 234., 235., 73., 237., 238., 237., 238., 78., 237.,
          238., 236., 236., 81. ]
      - [ 237., 238., 237., 238., 78., 237., 238., 236., 236., 81., 235.,
          236., 233., 235., 83., 235., 236., 234., 235., 67., 234., 237.,
          233., 237., 76. ]
      - [ 234., 237., 233., 237., 76., 237., 238., 236., 236., 68., 236.,
          239., 236., 238., 75., 238., 240., 237., 240., 76., 240., 241.,
          239., 241., 64. ]
      - [ 240., 241., 239., 241., 64., 241., 242., 240., 240., 66., 240.,
          241., 238., 240., 68., 240., 242., 240., 241., 79., 241., 242.,
          241., 241., 72. ]
      - [ 239., 241., 238., 241., 71., 242., 242., 241., 242., 75., 242.,
          243., 240., 243., 74., 242., 244., 242., 244., 82., 246., 246.,
          245., 245., 84. ]
      - [ 242., 243., 240., 243., 74., 242., 244., 242., 244., 82., 246.,
          246., 245., 245., 84., 246., 247., 244., 244., 98., 244., 245.,
          241., 244., 91. ]
      - [ 242., 244., 242., 244., 82., 246., 246., 245., 245., 84., 246.,
          247., 244., 244., 98., 244., 245., 241., 244., 91., 242., 244.,
          241., 242., 83. ]
      - [ 244., 245., 241., 244., 91., 242., 244., 241., 242., 83., 241.,
          242., 237., 238., 103., 239., 241., 239., 241., 82., 242.,
          243., 241., 242., 73. ]
      - [ 242., 244., 241., 242., 83., 241., 242., 237., 238., 103.,
          239., 241., 239., 241., 82., 242., 243., 241., 242., 73., 241.,
          241., 237., 238., 93. ]
      - [ 242., 243., 241., 242., 73., 241., 241., 237., 238., 93., 239.,
          239., 235., 237., 97., 237., 239., 236., 238., 91., 240., 242.,
          240., 241., 88. ]
      - [ 239., 241., 237., 240., 74., 240., 241., 240., 240., 73., 242.,
          243., 241., 243., 76., 244., 244., 243., 243., 73., 243., 245.,
          243., 245., 71. ]
      - [ 243., 245., 243., 245., 71., 245., 245., 244., 244., 77., 244.,
          246., 243., 244., 79., 244., 246., 244., 245., 73., 245., 246.,
          245., 245., 66. ]
      - [ 244., 246., 244., 245., 73., 245., 246., 245., 245., 66., 245.,
          245., 242., 242., 76., 243., 246., 243., 246., 80., 246., 246.,
          245., 246., 76. ]
      - [ 246., 246., 245., 246., 76., 245., 246., 244., 244., 91., 246.,
          246., 243., 245., 84., 244., 246., 243., 245., 76., 246., 247.,
          245., 246., 82. ]
      - [ 246., 246., 243., 245., 84., 244., 246., 243., 245., 76., 246.,
          247., 245., 246., 82., 245., 246., 243., 244., 80., 244., 245.,
          242., 244., 81. ]
      - [ 244., 246., 243., 245., 76., 246., 247., 245., 246., 82., 245.,
          246., 243., 244., 80., 244., 245., 242., 244., 81., 244., 244.,
          242., 242., 75. ]
      - [ 244., 245., 242., 244., 81., 244., 244., 242., 242., 75., 241.,
          242., 240., 241., 77., 242., 245., 242., 245., 79., 245., 246.,
          245., 245., 70. ]
      - [ 244., 244., 242., 242., 75., 241., 242., 240., 241., 77., 242.,
          245., 242., 245., 79., 245., 246., 245., 245., 70., 244., 244.,
          243., 243., 60. ]
      - [ 244., 244., 243., 243., 60., 241., 243., 240., 242., 79., 242.,
          244., 242., 244., 72., 244., 245., 243., 244., 75., 245., 248.,
          245., 248., 83. ]
      - [ 244., 245., 243., 244., 75., 245., 248., 245., 248., 83., 248.,
          248., 247., 247., 113., 248., 249., 248., 249., 70., 249.,
          249., 248., 249., 70. ]
      - [ 245., 248., 245., 248., 83., 248., 248., 247., 247., 113.,
          248., 249., 248., 249., 70., 249., 249., 248., 249., 70., 248.,
          249., 247., 247., 71. ]
      - [ 248., 248., 247., 247., 113., 248., 249., 248., 249., 70.,
          249., 249., 248., 249., 70., 248., 249., 247., 247., 71., 248.,
          248., 246., 246., 70. ]
      - [ 248., 249., 248., 249., 70., 249., 249., 248., 249., 70., 248.,
          249., 247., 247., 71., 248., 248., 246., 246., 70., 247., 247.,
          244., 245., 182. ]
      - [ 247., 247., 244., 245., 182., 242., 243., 239., 239., 91.,
          241., 241., 239., 240., 91., 242., 243., 241., 241., 80., 242.,
          242., 240., 241., 64. ]
      - [ 241., 241., 239., 240., 91., 242., 243., 241., 241., 80., 242.,
          242., 240., 241., 64., 239., 242., 239., 240., 76., 240., 241.,
          236., 241., 96. ]
      - [ 245., 247., 245., 246., 73., 246., 247., 245., 246., 74., 248.,
          249., 247., 249., 80., 251., 251., 250., 251., 82., 252., 253.,
          251., 252., 80. ]
      - [ 246., 247., 245., 246., 74., 248., 249., 247., 249., 80., 251.,
          251., 250., 251., 82., 252., 253., 251., 252., 80., 252., 252.,
          251., 251., 78. ]
      - [ 248., 249., 247., 249., 80., 251., 251., 250., 251., 82., 252.,
          253., 251., 252., 80., 252., 252., 251., 251., 78., 248., 250.,
          248., 249., 91. ]
      - [ 251., 251., 250., 251., 82., 252., 253., 251., 252., 80., 252.,
          252., 251., 251., 78., 248., 250., 248., 249., 91., 250., 251.,
          248., 248., 89. ]
      - [ 252., 253., 251., 252., 80., 252., 252., 251., 251., 78., 248.,
          250., 248., 249., 91., 250., 251., 248., 248., 89., 249., 249.,
          245., 245., 90. ]
      - [ 244., 246., 242., 245., 91., 246., 247., 245., 246., 84., 246.,
          248., 244., 247., 85., 248., 249., 247., 247., 86., 248., 248.,
          245., 247., 79. ]
      - [ 246., 248., 244., 247., 85., 248., 249., 247., 247., 86., 248.,
          248., 245., 247., 79., 246., 247., 245., 246., 80., 248., 250.,
          247., 248., 91. ]
      - [ 248., 249., 247., 247., 86., 248., 248., 245., 247., 79., 246.,
          247., 245., 246., 80., 248., 250., 247., 248., 91., 248., 248.,
          243., 244., 104. ]
      - [ 246., 247., 245., 246., 80., 248., 250., 247., 248., 91., 248.,
          248., 243., 244., 104., 243., 244., 241., 243., 90., 245.,
          246., 245., 246., 78. ]
      - [ 248., 248., 243., 244., 104., 243., 244., 241., 243., 90.,
          245., 246., 245., 246., 78., 244., 245., 241., 243., 85., 241.,
          244., 238., 243., 94. ]
      - [ 116., 117., 114., 116., 93., 116., 117., 114., 115., 85., 111.,
          111., 108., 109., 128., 107., 110., 106., 107., 109., 109.,
          109., 106., 107., 87. ]
      - [ 116., 117., 114., 115., 85., 111., 111., 108., 109., 128.,
          107., 110., 106., 107., 109., 109., 109., 106., 107., 87.,
          108., 112., 107., 112., 97. ]
      - [ 107., 110., 106., 107., 109., 109., 109., 106., 107., 87.,
          108., 112., 107., 112., 97., 111., 113., 111., 113., 84., 113.,
          114., 110., 110., 79. ]
      - [ 109., 109., 106., 107., 87., 108., 112., 107., 112., 97., 111.,
          113., 111., 113., 84., 113., 114., 110., 110., 79., 110., 114.,
          109., 114., 82. ]
      - [ 108., 112., 107., 112., 97., 111., 113., 111., 113., 84., 113.,
          114., 110., 110., 79., 110., 114., 109., 114., 82., 115., 118.,
          115., 118., 70. ]
      - [ 111., 113., 111., 113., 84., 113., 114., 110., 110., 79., 110.,
          114., 109., 114., 82., 115., 118., 115., 118., 70., 117., 119.,
          116., 118., 83. ]
      - [ 117., 119., 116., 118., 83., 119., 120., 117., 119., 89., 119.,
          120., 117., 117., 76., 114., 115., 113., 114., 68., 110., 113.,
          110., 113., 76. ]
      - [ 114., 115., 113., 114., 68., 110., 113., 110., 113., 76., 115.,
          117., 115., 117., 79., 116., 118., 116., 116., 88., 115., 115.,
          112., 113., 92. ]
      - [ 110., 113., 110., 113., 76., 115., 117., 115., 117., 79., 116.,
          118., 116., 116., 88., 115., 115., 112., 113., 92., 112., 114.,
          111., 114., 88. ]
      - [ 115., 117., 115., 117., 79., 116., 118., 116., 116., 88., 115.,
          115., 112., 113., 92., 112., 114., 111., 114., 88., 115., 116.,
          114., 116., 86. ]
      - [ 116., 118., 116., 116., 88., 115., 115., 112., 113., 92., 112.,
          114., 111., 114., 88., 115., 116., 114., 116., 86., 117., 120.,
          116., 118., 106. ]
      - [ 115., 115., 112., 113., 92., 112., 114., 111., 114., 88., 115.,
          116., 114., 116., 86., 117., 120., 116., 118., 106., 119.,
          120., 118., 120., 88. ]
      - [ 120., 121., 120., 121., 125., 119., 121., 118., 120., 84.,
          121., 122., 119., 119., 85., 120., 120., 116., 116., 98., 113.,
          114., 111., 112., 136. ]
      - [ 119., 121., 118., 120., 84., 121., 122., 119., 119., 85., 120.,
          120., 116., 116., 98., 113., 114., 111., 112., 136., 111.,
          114., 111., 114., 88. ]
      - [ 121., 122., 119., 119., 85., 120., 120., 116., 116., 98., 113.,
          114., 111., 112., 136., 111., 114., 111., 114., 88., 114.,
          116., 112., 115., 88. ]
      - [ 113., 114., 111., 112., 136., 111., 114., 111., 114., 88.,
          114., 116., 112., 115., 88., 118., 119., 116., 117., 94., 117.,
          118., 114., 114., 86. ]
      - [ 118., 119., 116., 117., 94., 117., 118., 114., 114., 86., 116.,
          117., 111., 114., 104., 112., 113., 110., 110., 91., 110.,
          111., 106., 106., 117. ]
      - [ 117., 118., 114., 114., 86., 116., 117., 111., 114., 104.,
          112., 113., 110., 110., 91., 110., 111., 106., 106., 117.,
          105., 110., 104., 110., 142. ]
      - [ 116., 117., 111., 114., 104., 112., 113., 110., 110., 91.,
          110., 111., 106., 106., 117., 105., 110., 104., 110., 142.,
          109., 113., 109., 113., 113. ]
      - [ 110., 111., 106., 106., 117., 105., 110., 104., 110., 142.,
          109., 113., 109., 113., 113., 112., 115., 112., 115., 102.,
          115., 115., 113., 114., 94. ]
      - [ 105., 110., 104., 110., 142., 109., 113., 109., 113., 113.,
          112., 115., 112., 115., 102., 115., 115., 113., 114., 94.,
          116., 118., 116., 118., 68. ]
      - [ 109., 113., 109., 113., 113., 112., 115., 112., 115., 102.,
          115., 115., 113., 114., 94., 116., 118., 116., 118., 68., 117.,
          119., 117., 119., 72. ]
      - [ 112., 115., 112., 115., 102., 115., 115., 113., 114., 94.,
          116., 118., 116., 118., 68., 117., 119., 117., 119., 72., 120.,
          121., 120., 120., 88. ]
      - [ 115., 115., 113., 114., 94., 116., 118., 116., 118., 68., 117.,
          119., 117., 119., 72., 120., 121., 120., 120., 88., 119., 121.,
          119., 121., 73. ]
      - [ 117., 119., 117., 119., 72., 120., 121., 120., 120., 88., 119.,
          121., 119., 121., 73., 122., 123., 121., 123., 72., 122., 123.,
          120., 120., 73. ]
      - [ 119., 121., 119., 121., 73., 122., 123., 121., 123., 72., 122.,
          123., 120., 120., 73., 120., 123., 119., 123., 86., 122., 122.,
          119., 120., 88. ]
      - [ 122., 123., 121., 123., 72., 122., 123., 120., 120., 73., 120.,
          123., 119., 123., 86., 122., 122., 119., 120., 88., 120., 120.,
          117., 120., 91. ]
      - [ 122., 123., 120., 120., 73., 120., 123., 119., 123., 86., 122.,
          122., 119., 120., 88., 120., 120., 117., 120., 91., 121., 122.,
          120., 121., 90. ]
      - [ 122., 122., 119., 120., 88., 120., 120., 117., 120., 91., 121.,
          122., 120., 121., 90., 122., 125., 122., 125., 83., 124., 124.,
          121., 122., 78. ]
      - [ 120., 120., 117., 120., 91., 121., 122., 120., 121., 90., 122.,
          125., 122., 125., 83., 124., 124., 121., 122., 78., 123., 123.,
          120., 122., 95. ]
      - [ 121., 122., 120., 121., 90., 122., 125., 122., 125., 83., 124.,
          124., 121., 122., 78., 123., 123., 120., 122., 95., 126., 127.,
          124., 127., 130. ]
      - [ 123., 123., 120., 122., 95., 126., 127., 124., 127., 130.,
          126., 127., 126., 127., 81., 125., 126., 124., 124., 78., 120.,
          122., 119., 120., 104. ]
      - [ 126., 127., 124., 127., 130., 126., 127., 126., 127., 81.,
          125., 126., 124., 124., 78., 120., 122., 119., 120., 104.,
          122., 122., 120., 122., 85. ]
      - [ 125., 126., 124., 124., 78., 120., 122., 119., 120., 104.,
          122., 122., 120., 122., 85., 123., 125., 121., 125., 95., 124.,
          124., 122., 124., 86. ]
      - [ 120., 122., 119., 120., 104., 122., 122., 120., 122., 85.,
          123., 125., 121., 125., 95., 124., 124., 122., 124., 86., 124.,
          125., 122., 124., 75. ]
      - [ 123., 125., 121., 125., 95., 124., 124., 122., 124., 86., 124.,
          125., 122., 124., 75., 125., 126., 124., 126., 82., 123., 123.,
          121., 121., 97. ]
      - [ 124., 124., 122., 124., 86., 124., 125., 122., 124., 75., 125.,
          126., 124., 126., 82., 123., 123., 121., 121., 97., 122., 122.,
          120., 121., 84. ]
      - [ 125., 126., 124., 126., 82., 123., 123., 121., 121., 97., 122.,
          122., 120., 121., 84., 122., 124., 122., 124., 69., 123., 124.,
          122., 122., 59. ]
      - [ 122., 124., 122., 124., 75., 123., 124., 122., 122., 87., 121.,
          122., 118., 119., 99., 119., 119., 118., 118., 77., 116., 117.,
          115., 116., 92. ]
      - [ 119., 119., 118., 118., 77., 116., 117., 115., 116., 92., 115.,
          116., 115., 116., 79., 115., 115., 113., 113., 75., 112., 113.,
          112., 112., 23. ]
      - [ 115., 116., 115., 116., 79., 115., 115., 113., 113., 75., 112.,
          113., 112., 112., 23., 115., 116., 115., 116., 70., 116., 117.,
          115., 115., 70. ]
      - [ 115., 115., 113., 113., 75., 112., 113., 112., 112., 23., 115.,
          116., 115., 116., 70., 116., 117., 115., 115., 70., 119., 121.,
          119., 121., 112. ]
      - [ 112., 113., 112., 112., 23., 115., 116., 115., 116., 70., 116.,
          117., 115., 115., 70., 119., 121., 119., 121., 112., 120.,
          121., 120., 121., 81. ]
      - [ 115., 116., 115., 116., 70., 116., 117., 115., 115., 70., 119.,
          121., 119., 121., 112., 120., 121., 120., 121., 81., 122.,
          123., 121., 121., 72. ]
      - [ 116., 117., 115., 115., 70., 119., 121., 119., 121., 112.,
          120., 121., 120., 121., 81., 122., 123., 121., 121., 72., 123.,
          123., 122., 122., 73. ]
      - [ 119., 121., 119., 121., 112., 120., 121., 120., 121., 81.,
          122., 123., 121., 121., 72., 123., 123., 122., 122., 73., 122.,
          123., 122., 122., 64. ]
      - [ 122., 123., 121., 121., 72., 123., 123., 122., 122., 73., 122.,
          123., 122., 122., 64., 122., 123., 120., 122., 72., 121., 122.,
          119., 119., 82. ]
      - [ 121., 122., 119., 119., 82., 120., 122., 120., 122., 72., 120.,
          120., 119., 120., 68., 121., 122., 118., 119., 77., 118., 118.,
          116., 117., 79. ]
      - [ 120., 122., 120., 122., 72., 120., 120., 119., 120., 68., 121.,
          122., 118., 119., 77., 118., 118., 116., 117., 79., 118., 118.,
          116., 117., 77. ]
      - [ 121., 122., 118., 119., 77., 118., 118., 116., 117., 79., 118.,
          118., 116., 117., 77., 117., 119., 117., 117., 123., 118.,
          118., 115., 116., 67. ]
      - [ 118., 118., 116., 117., 77., 117., 119., 117., 117., 123.,
          118., 118., 115., 116., 67., 118., 120., 118., 120., 81., 119.,
          119., 117., 118., 82. ]
      - [ 117., 119., 117., 117., 123., 118., 118., 115., 116., 67.,
          118., 120., 118., 120., 81., 119., 119., 117., 118., 82., 119.,
          120., 119., 120., 65. ]
      - [ 118., 118., 115., 116., 67., 118., 120., 118., 120., 81., 119.,
          119., 117., 118., 82., 119., 120., 119., 120., 65., 120., 121.,
          120., 121., 37. ]
      - [ 119., 119., 117., 118., 82., 119., 120., 119., 120., 65., 120.,
          121., 120., 121., 37., 120., 121., 120., 121., 36., 121., 121.,
          119., 119., 42. ]
      - [ 119., 120., 119., 120., 65., 120., 121., 120., 121., 37., 120.,
          121., 120., 121., 36., 121., 121., 119., 119., 42., 119., 120.,
          119., 120., 39. ]
      - [ 120., 121., 120., 121., 37., 120., 121., 120., 121., 36., 121.,
          121., 119., 119., 42., 119., 120., 119., 120., 39., 120., 120.,
          120., 120., 42. ]
      - [ 120., 121., 120., 121., 36., 121., 121., 119., 119., 42., 119.,
          120., 119., 120., 39., 120., 120., 120., 120., 42., 123., 123.,
          122., 122., 71. ]
      - [ 121., 121., 119., 119., 42., 119., 120., 119., 120., 39., 120.,
          120., 120., 120., 42., 123., 123., 122., 122., 71., 122., 122.,
          121., 122., 73. ]
      - [ 119., 120., 119., 120., 39., 120., 120., 120., 120., 42., 123.,
          123., 122., 122., 71., 122., 122., 121., 122., 73., 122., 123.,
          121., 123., 81. ]
      - [ 120., 120., 120., 120., 42., 123., 123., 122., 122., 71., 122.,
          122., 121., 122., 73., 122., 123., 121., 123., 81., 123., 124.,
          123., 123., 73. ]
      - [ 123., 123., 122., 122., 71., 122., 122., 121., 122., 73., 122.,
          123., 121., 123., 81., 123., 124., 123., 123., 73., 124., 124.,
          123., 123., 78. ]
      - [ 122., 122., 121., 122., 73., 122., 123., 121., 123., 81., 123.,
          124., 123., 123., 73., 124., 124., 123., 123., 78., 125., 125.,
          124., 125., 80. ]
      - [ 122., 123., 121., 123., 81., 123., 124., 123., 123., 73., 124.,
          124., 123., 123., 78., 125., 125., 124., 125., 80., 124., 125.,
          124., 125., 74. ]
      - [ 124., 124., 123., 123., 78., 125., 125., 124., 125., 80., 124.,
          125., 124., 125., 74., 126., 126., 125., 126., 73., 125., 125.,
          124., 125., 72. ]
      - [ 125., 125., 124., 125., 80., 124., 125., 124., 125., 74., 126.,
          126., 125., 126., 73., 125., 125., 124., 125., 72., 126., 127.,
          126., 126., 72. ]
      - [ 124., 125., 124., 125., 74., 126., 126., 125., 126., 73., 125.,
          125., 124., 125., 72., 126., 127., 126., 126., 72., 126., 128.,
          126., 128., 88. ]
      - [ 126., 126., 125., 126., 73., 125., 125., 124., 125., 72., 126.,
          127., 126., 126., 72., 126., 128., 126., 128., 88., 129., 129.,
          129., 129., 87. ]
      - [ 125., 125., 124., 125., 72., 126., 127., 126., 126., 72., 126.,
          128., 126., 128., 88., 129., 129., 129., 129., 87., 128., 129.,
          128., 129., 87. ]
      - [ 126., 127., 126., 126., 72., 126., 128., 126., 128., 88., 129.,
          129., 129., 129., 87., 128., 129., 128., 129., 87., 129., 130.,
          128., 129., 72. ]
      - [ 126., 128., 126., 128., 88., 129., 129., 129., 129., 87., 128.,
          129., 128., 129., 87., 129., 130., 128., 129., 72., 128., 129.,
          128., 129., 70. ]
      - [ 128., 129., 128., 129., 87., 129., 130., 128., 129., 72., 128.,
          129., 128., 129., 70., 130., 131., 129., 131., 85., 131., 131.,
          129., 130., 89. ]
      - [ 128., 129., 128., 129., 70., 130., 131., 129., 131., 85., 131.,
          131., 129., 130., 89., 130., 131., 130., 131., 75., 129., 131.,
          129., 130., 73. ]
      - [ 130., 131., 129., 131., 85., 131., 131., 129., 130., 89., 130.,
          131., 130., 131., 75., 129., 131., 129., 130., 73., 131., 131.,
          130., 130., 79. ]
      - [ 131., 131., 129., 130., 89., 130., 131., 130., 131., 75., 129.,
          131., 129., 130., 73., 131., 131., 130., 130., 79., 131., 133.,
          131., 132., 96. ]
      - [ 130., 131., 130., 131., 75., 129., 131., 129., 130., 73., 131.,
          131., 130., 130., 79., 131., 133., 131., 132., 96., 132., 133.,
          132., 133., 85. ]
      - [ 129., 131., 129., 130., 73., 131., 131., 130., 130., 79., 131.,
          133., 131., 132., 96., 132., 133., 132., 133., 85., 134., 135.,
          134., 135., 97. ]
      - [ 131., 131., 130., 130., 79., 131., 133., 131., 132., 96., 132.,
          133., 132., 133., 85., 134., 135., 134., 135., 97., 134., 135.,
          134., 135., 73. ]
      - [ 131., 133., 131., 132., 96., 132., 133., 132., 133., 85., 134.,
          135., 134., 135., 97., 134., 135., 134., 135., 73., 135., 135.,
          134., 135., 78. ]
      - [ 132., 133., 132., 133., 85., 134., 135., 134., 135., 97., 134.,
          135., 134., 135., 73., 135., 135., 134., 135., 78., 135., 136.,
          134., 136., 88. ]
      - [ 134., 135., 134., 135., 73., 135., 135., 134., 135., 78., 135.,
          136., 134., 136., 88., 136., 136., 135., 136., 97., 135., 135.,
          135., 135., 79. ]
      - [ 135., 135., 134., 135., 78., 135., 136., 134., 136., 88., 136.,
          136., 135., 136., 97., 135., 135., 135., 135., 79., 136., 136.,
          135., 136., 70. ]
      - [ 135., 136., 134., 136., 88., 136., 136., 135., 136., 97., 135.,
          135., 135., 135., 79., 136., 136., 135., 136., 70., 136., 136.,
          135., 136., 83. ]
      - [ 136., 136., 135., 136., 97., 135., 135., 135., 135., 79., 136.,
          136., 135., 136., 70., 136., 136., 135., 136., 83., 137., 138.,
          135., 136., 91. ]
      - [ 136., 136., 135., 136., 70., 136., 136., 135., 136., 83., 137.,
          138., 135., 136., 91., 136., 138., 135., 138., 87., 138., 138.,
          137., 137., 88. ]
      - [ 137., 138., 135., 136., 91., 136., 138., 135., 138., 87., 138.,
          138., 137., 137., 88., 138., 138., 136., 137., 80., 137., 137.,
          136., 136., 74. ]
      - [ 136., 138., 135., 138., 87., 138., 138., 137., 137., 88., 138.,
          138., 136., 137., 80., 137., 137., 136., 136., 74., 136., 138.,
          136., 138., 78. ]
      - [ 138., 138., 137., 137., 88., 138., 138., 136., 137., 80., 137.,
          137., 136., 136., 74., 136., 138., 136., 138., 78., 138., 138.,
          138., 138., 71. ]
      - [ 138., 138., 136., 137., 80., 137., 137., 136., 136., 74., 136.,
          138., 136., 138., 78., 138., 138., 138., 138., 71., 137., 139.,
          136., 138., 77. ]
      - [ 136., 138., 136., 138., 78., 138., 138., 138., 138., 71., 137.,
          139., 136., 138., 77., 138., 139., 138., 139., 80., 139., 140.,
          138., 138., 98. ]
      - [ 138., 138., 138., 138., 71., 137., 139., 136., 138., 77., 138.,
          139., 138., 139., 80., 139., 140., 138., 138., 98., 139., 140.,
          139., 139., 84. ]
      - [ 139., 140., 138., 138., 98., 139., 140., 139., 139., 84., 139.,
          140., 138., 139., 77., 138., 138., 137., 137., 73., 136., 136.,
          135., 135., 83. ]
      - [ 139., 140., 139., 139., 84., 139., 140., 138., 139., 77., 138.,
          138., 137., 137., 73., 136., 136., 135., 135., 83., 136., 137.,
          136., 137., 69. ]
      - [ 139., 140., 138., 139., 77., 138., 138., 137., 137., 73., 136.,
          136., 135., 135., 83., 136., 137., 136., 137., 69., 138., 139.,
          137., 138., 70. ]
      - [ 138., 138., 137., 137., 73., 136., 136., 135., 135., 83., 136.,
          137., 136., 137., 69., 138., 139., 137., 138., 70., 139., 140.,
          138., 139., 68. ]
      - [ 136., 136., 135., 135., 83., 136., 137., 136., 137., 69., 138.,
          139., 137., 138., 70., 139., 140., 138., 139., 68., 139., 140.,
          138., 139., 56. ]
      - [ 136., 137., 136., 137., 69., 138., 139., 137., 138., 70., 139.,
          140., 138., 139., 68., 139., 140., 138., 139., 56., 140., 142.,
          140., 142., 75. ]
      - [ 138., 139., 137., 138., 70., 139., 140., 138., 139., 68., 139.,
          140., 138., 139., 56., 140., 142., 140., 142., 75., 142., 142.,
          141., 142., 72. ]
      - [ 139., 140., 138., 139., 68., 139., 140., 138., 139., 56., 140.,
          142., 140., 142., 75., 142., 142., 141., 142., 72., 142., 143.,
          142., 143., 73. ]
      - [ 139., 140., 138., 139., 56., 140., 142., 140., 142., 75., 142.,
          142., 141., 142., 72., 142., 143., 142., 143., 73., 143., 143.,
          142., 143., 94. ]
      - [ 140., 142., 140., 142., 75., 142., 142., 141., 142., 72., 142.,
          143., 142., 143., 73., 143., 143., 142., 143., 94., 143., 144.,
          142., 144., 67. ]
      - [ 142., 142., 141., 142., 72., 142., 143., 142., 143., 73., 143.,
          143., 142., 143., 94., 143., 144., 142., 144., 67., 143., 144.,
          142., 144., 64. ]
      - [ 143., 143., 142., 143., 94., 143., 144., 142., 144., 67., 143.,
          144., 142., 144., 64., 144., 144., 143., 144., 67., 143., 143.,
          142., 143., 65. ]
      - [ 143., 144., 142., 144., 67., 143., 144., 142., 144., 64., 144.,
          144., 143., 144., 67., 143., 143., 142., 143., 65., 143., 143.,
          142., 143., 60. ]
      - [ 143., 144., 142., 144., 64., 144., 144., 143., 144., 67., 143.,
          143., 142., 143., 65., 143., 143., 142., 143., 60., 144., 146.,
          144., 146., 71. ]
      - [ 143., 143., 142., 143., 65., 143., 143., 142., 143., 60., 144.,
          146., 144., 146., 71., 146., 147., 146., 146., 72., 146., 146.,
          144., 145., 77. ]
      - [ 144., 146., 144., 146., 71., 146., 147., 146., 146., 72., 146.,
          146., 144., 145., 77., 144., 145., 143., 145., 77., 145., 145.,
          144., 144., 81. ]
      - [ 146., 147., 146., 146., 72., 146., 146., 144., 145., 77., 144.,
          145., 143., 145., 77., 145., 145., 144., 144., 81., 144., 146.,
          144., 146., 78. ]
      - [ 144., 145., 143., 145., 77., 145., 145., 144., 144., 81., 144.,
          146., 144., 146., 78., 146., 146., 145., 146., 79., 144., 144.,
          142., 143., 80. ]
      - [ 146., 146., 145., 146., 79., 144., 144., 142., 143., 80., 143.,
          144., 143., 144., 66., 142., 143., 141., 142., 58., 142., 143.,
          139., 139., 87. ]
      - [ 144., 144., 142., 143., 80., 143., 144., 143., 144., 66., 142.,
          143., 141., 142., 58., 142., 143., 139., 139., 87., 141., 141.,
          140., 141., 66. ]
      - [ 142., 143., 139., 139., 87., 141., 141., 140., 141., 66., 141.,
          143., 141., 143., 63., 142., 142., 140., 140., 63., 141., 141.,
          139., 139., 69. ]
      - [ 142., 142., 140., 140., 63., 141., 141., 139., 139., 69., 140.,
          142., 140., 142., 67., 141., 142., 141., 141., 69., 141., 143.,
          140., 140., 89. ]
      - [ 140., 142., 140., 142., 67., 141., 142., 141., 141., 69., 141.,
          143., 140., 140., 89., 141., 142., 140., 140., 86., 138., 138.,
          137., 138., 78. ]
      - [ 141., 142., 141., 141., 69., 141., 143., 140., 140., 89., 141.,
          142., 140., 140., 86., 138., 138., 137., 138., 78., 138., 139.,
          137., 138., 74. ]
      - [ 141., 143., 140., 140., 89., 141., 142., 140., 140., 86., 138.,
          138., 137., 138., 78., 138., 139., 137., 138., 74., 140., 141.,
          140., 141., 75. ]
      - [ 141., 142., 140., 140., 86., 138., 138., 137., 138., 78., 138.,
          139., 137., 138., 74., 140., 141., 140., 141., 75., 141., 143.,
          141., 142., 77. ]
      - [ 138., 139., 137., 138., 74., 140., 141., 140., 141., 75., 141.,
          143., 141., 142., 77., 143., 144., 142., 143., 78., 143., 143.,
          142., 142., 71. ]
      - [ 140., 141., 140., 141., 75., 141., 143., 141., 142., 77., 143.,
          144., 142., 143., 78., 143., 143., 142., 142., 71., 142., 144.,
          142., 142., 82. ]
      - [ 143., 143., 142., 142., 71., 142., 144., 142., 142., 82., 142.,
          143., 141., 143., 80., 143., 143., 141., 141., 83., 140., 140.,
          138., 138., 86. ]
      - [ 142., 143., 141., 143., 80., 143., 143., 141., 141., 83., 140.,
          140., 138., 138., 86., 137., 138., 137., 138., 76., 137., 137.,
          135., 137., 98. ]
      - [ 140., 140., 138., 138., 86., 137., 138., 137., 138., 76., 137.,
          137., 135., 137., 98., 135., 137., 135., 137., 92., 137., 137.,
          136., 136., 90. ]
      - [ 135., 136., 135., 135., 73., 135., 136., 134., 134., 81., 135.,
          135., 133., 133., 86., 133., 134., 130., 130., 90., 130., 131.,
          128., 129., 124. ]
      - [ 135., 136., 134., 134., 81., 135., 135., 133., 133., 86., 133.,
          134., 130., 130., 90., 130., 131., 128., 129., 124., 129.,
          132., 128., 132., 83. ]
      - [ 135., 135., 133., 133., 86., 133., 134., 130., 130., 90., 130.,
          131., 128., 129., 124., 129., 132., 128., 132., 83., 132.,
          133., 131., 132., 82. ]
      - [ 133., 134., 130., 130., 90., 130., 131., 128., 129., 124.,
          129., 132., 128., 132., 83., 132., 133., 131., 132., 82., 131.,
          133., 129., 132., 86. ]
      - [ 130., 131., 128., 129., 124., 129., 132., 128., 132., 83.,
          132., 133., 131., 132., 82., 131., 133., 129., 132., 86., 133.,
          133., 131., 132., 77. ]
      - [ 129., 132., 128., 132., 83., 132., 133., 131., 132., 82., 131.,
          133., 129., 132., 86., 133., 133., 131., 132., 77., 132., 132.,
          131., 132., 53. ]
      - [ 132., 132., 131., 132., 53., 132., 134., 132., 133., 0., 132.,
          132., 131., 132., 73., 132., 132., 130., 131., 98., 130., 130.,
          127., 127., 88. ]
      - [ 132., 134., 132., 133., 0., 132., 132., 131., 132., 73., 132.,
          132., 130., 131., 98., 130., 130., 127., 127., 88., 127., 128.,
          126., 128., 77. ]
      - [ 132., 132., 131., 132., 73., 132., 132., 130., 131., 98., 130.,
          130., 127., 127., 88., 127., 128., 126., 128., 77., 127., 129.,
          127., 129., 70. ]
      - [ 130., 130., 127., 127., 88., 127., 128., 126., 128., 77., 127.,
          129., 127., 129., 70., 130., 132., 130., 132., 77., 133., 133.,
          131., 131., 72. ]
      - [ 127., 129., 127., 129., 70., 130., 132., 130., 132., 77., 133.,
          133., 131., 131., 72., 131., 133., 130., 133., 59., 134., 134.,
          130., 130., 63. ]
      - [ 133., 133., 131., 131., 72., 131., 133., 130., 133., 59., 134.,
          134., 130., 130., 63., 131., 132., 130., 132., 69., 132., 132.,
          130., 131., 69. ]
      - [ 131., 133., 130., 133., 59., 134., 134., 130., 130., 63., 131.,
          132., 130., 132., 69., 132., 132., 130., 131., 69., 131., 132.,
          130., 132., 71. ]
      - [ 134., 134., 130., 130., 63., 131., 132., 130., 132., 69., 132.,
          132., 130., 131., 69., 131., 132., 130., 132., 71., 132., 133.,
          132., 133., 90. ]
      - [ 131., 132., 130., 132., 69., 132., 132., 130., 131., 69., 131.,
          132., 130., 132., 71., 132., 133., 132., 133., 90., 133., 135.,
          132., 135., 68. ]
      - [ 132., 132., 130., 131., 69., 131., 132., 130., 132., 71., 132.,
          133., 132., 133., 90., 133., 135., 132., 135., 68., 135., 137.,
          135., 136., 81. ]
      - [ 132., 133., 132., 133., 90., 133., 135., 132., 135., 68., 135.,
          137., 135., 136., 81., 136., 137., 135., 136., 67., 136., 136.,
          133., 133., 80. ]
      - [ 135., 137., 135., 136., 81., 136., 137., 135., 136., 67., 136.,
          136., 133., 133., 80., 133., 134., 133., 134., 167., 133.,
          133., 131., 132., 65. ]
      - [ 136., 137., 135., 136., 67., 136., 136., 133., 133., 80., 133.,
          134., 133., 134., 167., 133., 133., 131., 132., 65., 132.,
          133., 131., 132., 70. ]
      - [ 133., 134., 133., 134., 167., 133., 133., 131., 132., 65.,
          132., 133., 131., 132., 70., 133., 134., 133., 134., 73., 132.,
          133., 131., 132., 79. ]
      - [ 133., 133., 131., 132., 65., 132., 133., 131., 132., 70., 133.,
          134., 133., 134., 73., 132., 133., 131., 132., 79., 135., 137.,
          135., 137., 90. ]
      - [ 132., 133., 131., 132., 70., 133., 134., 133., 134., 73., 132.,
          133., 131., 132., 79., 135., 137., 135., 137., 90., 137., 137.,
          136., 137., 81. ]
      - [ 133., 134., 133., 134., 73., 132., 133., 131., 132., 79., 135.,
          137., 135., 137., 90., 137., 137., 136., 137., 81., 137., 139.,
          137., 139., 39. ]
      - [ 138., 138., 136., 137., 61., 136., 137., 136., 136., 62., 137.,
          137., 134., 135., 75., 135., 135., 133., 134., 71., 133., 134.,
          132., 133., 75. ]
      - [ 136., 137., 136., 136., 62., 137., 137., 134., 135., 75., 135.,
          135., 133., 134., 71., 133., 134., 132., 133., 75., 133., 135.,
          133., 135., 58. ]
      - [ 137., 137., 134., 135., 75., 135., 135., 133., 134., 71., 133.,
          134., 132., 133., 75., 133., 135., 133., 135., 58., 135., 135.,
          134., 135., 60. ]
      - [ 135., 135., 133., 134., 71., 133., 134., 132., 133., 75., 133.,
          135., 133., 135., 58., 135., 135., 134., 135., 60., 135., 136.,
          133., 135., 78. ]
      - [ 133., 134., 132., 133., 75., 133., 135., 133., 135., 58., 135.,
          135., 134., 135., 60., 135., 136., 133., 135., 78., 135., 137.,
          135., 137., 80. ]
      - [ 138., 139., 137., 138., 76., 138., 138., 136., 136., 80., 134.,
          135., 132., 134., 69., 135., 135., 132., 133., 77., 133., 133.,
          132., 132., 78. ]
      - [ 138., 138., 136., 136., 80., 134., 135., 132., 134., 69., 135.,
          135., 132., 133., 77., 133., 133., 132., 132., 78., 135., 135.,
          134., 134., 88. ]
      - [ 135., 135., 132., 133., 77., 133., 133., 132., 132., 78., 135.,
          135., 134., 134., 88., 135., 138., 135., 138., 94., 138., 138.,
          137., 137., 63. ]
      - [ 135., 138., 135., 138., 94., 138., 138., 137., 137., 63., 137.,
          138., 137., 137., 79., 138., 138., 136., 136., 75., 135., 137.,
          134., 135., 80. ]
      - [ 138., 138., 137., 137., 63., 137., 138., 137., 137., 79., 138.,
          138., 136., 136., 75., 135., 137., 134., 135., 80., 137., 139.,
          137., 138., 76. ]
      - [ 137., 138., 137., 137., 79., 138., 138., 136., 136., 75., 135.,
          137., 134., 135., 80., 137., 139., 137., 138., 76., 139., 140.,
          139., 139., 65. ]
      - [ 135., 137., 134., 135., 80., 137., 139., 137., 138., 76., 139.,
          140., 139., 139., 65., 140., 141., 140., 141., 84., 140., 141.,
          140., 140., 83. ]
      - [ 137., 139., 137., 138., 76., 139., 140., 139., 139., 65., 140.,
          141., 140., 141., 84., 140., 141., 140., 140., 83., 140., 141.,
          140., 141., 73. ]
      - [ 139., 140., 139., 139., 65., 140., 141., 140., 141., 84., 140.,
          141., 140., 140., 83., 140., 141., 140., 141., 73., 140., 141.,
          140., 141., 67. ]
      - [ 140., 141., 140., 141., 84., 140., 141., 140., 140., 83., 140.,
          141., 140., 141., 73., 140., 141., 140., 141., 67., 141., 141.,
          140., 141., 57. ]
      - [ 140., 141., 140., 140., 83., 140., 141., 140., 141., 73., 140.,
          141., 140., 141., 67., 141., 141., 140., 141., 57., 141., 142.,
          140., 141., 67. ]
      - [ 140., 141., 140., 141., 73., 140., 141., 140., 141., 67., 141.,
          141., 140., 141., 57., 141., 142., 140., 141., 67., 140., 141.,
          140., 141., 66. ]
      - [ 140., 141., 140., 141., 67., 141., 141., 140., 141., 57., 141.,
          142., 140., 141., 67., 140., 141., 140., 141., 66., 142., 143.,
          141., 143., 86. ]
      - [ 141., 141., 140., 141., 57., 141., 142., 140., 141., 67., 140.,
          141., 140., 141., 66., 142., 143., 141., 143., 86., 143., 144.,
          143., 144., 71. ]
      - [ 140., 141., 140., 141., 66., 142., 143., 141., 143., 86., 143.,
          144., 143., 144., 71., 143., 144., 143., 144., 62., 144., 145.,
          143., 143., 68. ]
      - [ 143., 144., 143., 144., 71., 143., 144., 143., 144., 62., 144.,
          145., 143., 143., 68., 143., 144., 143., 144., 62., 143., 143.,
          142., 143., 58. ]
      - [ 143., 144., 143., 144., 62., 144., 145., 143., 143., 68., 143.,
          144., 143., 144., 62., 143., 143., 142., 143., 58., 142., 144.,
          142., 143., 56. ]
      - [ 144., 145., 143., 143., 68., 143., 144., 143., 144., 62., 143.,
          143., 142., 143., 58., 142., 144., 142., 143., 56., 144., 144.,
          143., 144., 58. ]
      - [ 143., 144., 143., 144., 62., 143., 143., 142., 143., 58., 142.,
          144., 142., 143., 56., 144., 144., 143., 144., 58., 143., 144.,
          143., 144., 57. ]
      - [ 142., 144., 142., 143., 56., 144., 144., 143., 144., 58., 143.,
          144., 143., 144., 57., 144., 144., 143., 144., 53., 143., 143.,
          142., 142., 50. ]
      - [ 144., 144., 143., 144., 58., 143., 144., 143., 144., 57., 144.,
          144., 143., 144., 53., 143., 143., 142., 142., 50., 143., 144.,
          142., 143., 59. ]
      - [ 144., 144., 143., 144., 53., 143., 143., 142., 142., 50., 143.,
          144., 142., 143., 59., 143., 144., 142., 144., 64., 143., 144.,
          143., 143., 64. ]
      - [ 143., 143., 142., 142., 50., 143., 144., 142., 143., 59., 143.,
          144., 142., 144., 64., 143., 144., 143., 143., 64., 144., 147.,
          144., 147., 85. ]
      - [ 143., 144., 142., 144., 64., 143., 144., 143., 143., 64., 144.,
          147., 144., 147., 85., 147., 147., 146., 147., 76., 146., 147.,
          145., 145., 68. ]
      - [ 143., 144., 143., 143., 64., 144., 147., 144., 147., 85., 147.,
          147., 146., 147., 76., 146., 147., 145., 145., 68., 145., 146.,
          145., 145., 68. ]
      - [ 144., 147., 144., 147., 85., 147., 147., 146., 147., 76., 146.,
          147., 145., 145., 68., 145., 146., 145., 145., 68., 146., 146.,
          145., 146., 74. ]
      - [ 147., 147., 146., 147., 76., 146., 147., 145., 145., 68., 145.,
          146., 145., 145., 68., 146., 146., 145., 146., 74., 146., 148.,
          145., 148., 83. ]
      - [ 146., 147., 145., 145., 68., 145., 146., 145., 145., 68., 146.,
          146., 145., 146., 74., 146., 148., 145., 148., 83., 148., 150.,
          148., 149., 89. ]
      - [ 145., 146., 145., 145., 68., 146., 146., 145., 146., 74., 146.,
          148., 145., 148., 83., 148., 150., 148., 149., 89., 149., 149.,
          148., 149., 63. ]
      - [ 146., 146., 145., 146., 74., 146., 148., 145., 148., 83., 148.,
          150., 148., 149., 89., 149., 149., 148., 149., 63., 149., 149.,
          148., 149., 75. ]
      - [ 146., 148., 145., 148., 83., 148., 150., 148., 149., 89., 149.,
          149., 148., 149., 63., 149., 149., 148., 149., 75., 149., 149.,
          148., 149., 82. ]
      - [ 148., 150., 148., 149., 89., 149., 149., 148., 149., 63., 149.,
          149., 148., 149., 75., 149., 149., 148., 149., 82., 148., 149.,
          148., 149., 80. ]
      - [ 148., 149., 148., 149., 80., 150., 150., 149., 149., 116.,
          148., 148., 147., 148., 74., 148., 149., 146., 146., 88., 146.,
          146., 144., 145., 76. ]
      - [ 148., 148., 147., 148., 74., 148., 149., 146., 146., 88., 146.,
          146., 144., 145., 76., 145., 147., 145., 147., 74., 146., 146.,
          145., 146., 82. ]
      - [ 148., 149., 146., 146., 88., 146., 146., 144., 145., 76., 145.,
          147., 145., 147., 74., 146., 146., 145., 146., 82., 146., 147.,
          145., 146., 77. ]
      - [ 146., 146., 144., 145., 76., 145., 147., 145., 147., 74., 146.,
          146., 145., 146., 82., 146., 147., 145., 146., 77., 146., 146.,
          145., 146., 70. ]
      - [ 145., 147., 145., 147., 74., 146., 146., 145., 146., 82., 146.,
          147., 145., 146., 77., 146., 146., 145., 146., 70., 146., 147.,
          146., 147., 74. ]
      - [ 146., 146., 145., 146., 82., 146., 147., 145., 146., 77., 146.,
          146., 145., 146., 70., 146., 147., 146., 147., 74., 147., 148.,
          146., 147., 68. ]
      - [ 147., 148., 146., 147., 68., 148., 148., 146., 147., 70., 146.,
          146., 145., 145., 48., 145., 145., 143., 143., 71., 143., 143.,
          142., 142., 79. ]
      - [ 148., 148., 146., 147., 70., 146., 146., 145., 145., 48., 145.,
          145., 143., 143., 71., 143., 143., 142., 142., 79., 144., 144.,
          142., 142., 69. ]
      - [ 146., 146., 145., 145., 48., 145., 145., 143., 143., 71., 143.,
          143., 142., 142., 79., 144., 144., 142., 142., 69., 142., 143.,
          142., 142., 65. ]
      - [ 145., 145., 143., 143., 71., 143., 143., 142., 142., 79., 144.,
          144., 142., 142., 69., 142., 143., 142., 142., 65., 142., 143.,
          142., 143., 67. ]
      - [ 143., 143., 142., 142., 79., 144., 144., 142., 142., 69., 142.,
          143., 142., 142., 65., 142., 143., 142., 143., 67., 144., 145.,
          143., 145., 76. ]
      - [ 142., 143., 142., 143., 67., 144., 145., 143., 145., 76., 144.,
          145., 144., 145., 78., 145., 145., 143., 143., 91., 143., 143.,
          140., 140., 101. ]
      - [ 144., 145., 144., 145., 78., 145., 145., 143., 143., 91., 143.,
          143., 140., 140., 101., 140., 141., 140., 141., 72., 139.,
          140., 138., 139., 81. ]
      - [ 145., 145., 143., 143., 91., 143., 143., 140., 140., 101.,
          140., 141., 140., 141., 72., 139., 140., 138., 139., 81., 140.,
          140., 139., 139., 88. ]
      - [ 143., 143., 140., 140., 101., 140., 141., 140., 141., 72.,
          139., 140., 138., 139., 81., 140., 140., 139., 139., 88., 140.,
          140., 139., 139., 85. ]
      - [ 140., 141., 140., 141., 72., 139., 140., 138., 139., 81., 140.,
          140., 139., 139., 88., 140., 140., 139., 139., 85., 139., 140.,
          138., 139., 81. ]
      - [ 139., 140., 138., 139., 81., 140., 140., 139., 139., 88., 140.,
          140., 139., 139., 85., 139., 140., 138., 139., 81., 139., 139.,
          138., 139., 80. ]
      - [ 140., 140., 139., 139., 85., 139., 140., 138., 139., 81., 139.,
          139., 138., 139., 80., 139., 141., 139., 141., 83., 142., 142.,
          139., 139., 81. ]
      - [ 139., 140., 138., 139., 81., 139., 139., 138., 139., 80., 139.,
          141., 139., 141., 83., 142., 142., 139., 139., 81., 139., 140.,
          139., 140., 64. ]
      - [ 142., 142., 139., 139., 81., 139., 140., 139., 140., 64., 140.,
          141., 140., 140., 78., 139., 139., 136., 137., 92., 137., 137.,
          135., 135., 83. ]
      - [ 139., 140., 139., 140., 64., 140., 141., 140., 140., 78., 139.,
          139., 136., 137., 92., 137., 137., 135., 135., 83., 134., 136.,
          134., 135., 79. ]
      - [ 137., 137., 135., 135., 83., 134., 136., 134., 135., 79., 136.,
          136., 135., 135., 58., 134., 135., 134., 134., 80., 135., 135.,
          132., 132., 95. ]
      - [ 134., 136., 134., 135., 79., 136., 136., 135., 135., 58., 134.,
          135., 134., 134., 80., 135., 135., 132., 132., 95., 132., 133.,
          131., 132., 90. ]
      - [ 136., 136., 135., 135., 58., 134., 135., 134., 134., 80., 135.,
          135., 132., 132., 95., 132., 133., 131., 132., 90., 132., 133.,
          130., 132., 99. ]
      - [ 134., 135., 134., 134., 80., 135., 135., 132., 132., 95., 132.,
          133., 131., 132., 90., 132., 133., 130., 132., 99., 134., 136.,
          134., 136., 78. ]
      - [ 135., 135., 132., 132., 95., 132., 133., 131., 132., 90., 132.,
          133., 130., 132., 99., 134., 136., 134., 136., 78., 135., 136.,
          134., 136., 69. ]
      - [ 132., 133., 131., 132., 90., 132., 133., 130., 132., 99., 134.,
          136., 134., 136., 78., 135., 136., 134., 136., 69., 136., 136.,
          135., 136., 61. ]
      - [ 132., 133., 130., 132., 99., 134., 136., 134., 136., 78., 135.,
          136., 134., 136., 69., 136., 136., 135., 136., 61., 137., 138.,
          137., 138., 28. ]
      - [ 135., 136., 134., 136., 69., 136., 136., 135., 136., 61., 137.,
          138., 137., 138., 28., 138., 139., 137., 139., 71., 139., 139.,
          138., 138., 77. ]
      - [ 136., 136., 135., 136., 61., 137., 138., 137., 138., 28., 138.,
          139., 137., 139., 71., 139., 139., 138., 138., 77., 137., 139.,
          137., 139., 75. ]
      - [ 137., 138., 137., 138., 28., 138., 139., 137., 139., 71., 139.,
          139., 138., 138., 77., 137., 139., 137., 139., 75., 140., 141.,
          140., 140., 77. ]
      - [ 138., 139., 137., 139., 71., 139., 139., 138., 138., 77., 137.,
          139., 137., 139., 75., 140., 141., 140., 140., 77., 140., 141.,
          140., 140., 99. ]
      - [ 139., 139., 138., 138., 77., 137., 139., 137., 139., 75., 140.,
          141., 140., 140., 77., 140., 141., 140., 140., 99., 141., 141.,
          140., 140., 73. ]
      - [ 140., 141., 140., 140., 77., 140., 141., 140., 140., 99., 141.,
          141., 140., 140., 73., 140., 140., 139., 140., 78., 139., 140.,
          138., 138., 79. ]
      - [ 140., 141., 140., 140., 99., 141., 141., 140., 140., 73., 140.,
          140., 139., 140., 78., 139., 140., 138., 138., 79., 138., 140.,
          138., 139., 75. ]
      - [ 141., 141., 140., 140., 73., 140., 140., 139., 140., 78., 139.,
          140., 138., 138., 79., 138., 140., 138., 139., 75., 140., 140.,
          138., 139., 70. ]
      - [ 140., 140., 139., 140., 78., 139., 140., 138., 138., 79., 138.,
          140., 138., 139., 75., 140., 140., 138., 139., 70., 138., 140.,
          138., 139., 65. ]
      - [ 139., 140., 138., 138., 79., 138., 140., 138., 139., 75., 140.,
          140., 138., 139., 70., 138., 140., 138., 139., 65., 140., 141.,
          140., 141., 85. ]
      - [ 138., 140., 138., 139., 65., 140., 141., 140., 141., 85., 142.,
          142., 140., 141., 77., 140., 141., 139., 139., 81., 139., 139.,
          138., 138., 79. ]
      - [ 140., 141., 140., 141., 85., 142., 142., 140., 141., 77., 140.,
          141., 139., 139., 81., 139., 139., 138., 138., 79., 139., 140.,
          138., 140., 85. ]
      - [ 140., 141., 139., 139., 81., 139., 139., 138., 138., 79., 139.,
          140., 138., 140., 85., 141., 143., 141., 143., 90., 143., 143.,
          142., 142., 86. ]
      - [ 143., 143., 142., 142., 86., 142., 143., 142., 142., 74., 140.,
          141., 140., 141., 132., 141., 141., 140., 140., 19., 140.,
          141., 139., 139., 42. ]
      - [ 140., 141., 140., 141., 132., 141., 141., 140., 140., 19.,
          140., 141., 139., 139., 42., 139., 139., 137., 139., 56., 138.,
          139., 138., 138., 46. ]
      - [ 141., 141., 140., 140., 19., 140., 141., 139., 139., 42., 139.,
          139., 137., 139., 56., 138., 139., 138., 138., 46., 138., 141.,
          137., 141., 67. ]
      - [ 140., 141., 139., 139., 42., 139., 139., 137., 139., 56., 138.,
          139., 138., 138., 46., 138., 141., 137., 141., 67., 144., 145.,
          144., 145., 95. ]
      - [ 139., 139., 137., 139., 56., 138., 139., 138., 138., 46., 138.,
          141., 137., 141., 67., 144., 145., 144., 145., 95., 145., 146.,
          144., 145., 78. ]
      - [ 138., 139., 138., 138., 46., 138., 141., 137., 141., 67., 144.,
          145., 144., 145., 95., 145., 146., 144., 145., 78., 145., 145.,
          144., 145., 76. ]
      - [ 144., 145., 144., 145., 95., 145., 146., 144., 145., 78., 145.,
          145., 144., 145., 76., 144., 145., 144., 145., 74., 145., 145.,
          144., 144., 76. ]
      - [ 145., 146., 144., 145., 78., 145., 145., 144., 145., 76., 144.,
          145., 144., 145., 74., 145., 145., 144., 144., 76., 145., 145.,
          145., 145., 76. ]
      - [ 145., 145., 144., 145., 76., 144., 145., 144., 145., 74., 145.,
          145., 144., 144., 76., 145., 145., 145., 145., 76., 146., 146.,
          145., 146., 77. ]
      - [ 144., 145., 144., 145., 74., 145., 145., 144., 144., 76., 145.,
          145., 145., 145., 76., 146., 146., 145., 146., 77., 146., 146.,
          146., 146., 78. ]
      - [ 145., 145., 145., 145., 76., 146., 146., 145., 146., 77., 146.,
          146., 146., 146., 78., 146., 146., 145., 146., 83., 145., 145.,
          145., 145., 82. ]
      - [ 146., 146., 145., 146., 77., 146., 146., 146., 146., 78., 146.,
          146., 145., 146., 83., 145., 145., 145., 145., 82., 145., 146.,
          145., 146., 74. ]
      - [ 146., 146., 146., 146., 78., 146., 146., 145., 146., 83., 145.,
          145., 145., 145., 82., 145., 146., 145., 146., 74., 146., 147.,
          146., 147., 78. ]
      - [ 146., 146., 145., 146., 83., 145., 145., 145., 145., 82., 145.,
          146., 145., 146., 74., 146., 147., 146., 147., 78., 146., 147.,
          146., 147., 82. ]
      - [ 145., 145., 145., 145., 82., 145., 146., 145., 146., 74., 146.,
          147., 146., 147., 78., 146., 147., 146., 147., 82., 147., 147.,
          146., 147., 79. ]
      - [ 146., 147., 146., 147., 78., 146., 147., 146., 147., 82., 147.,
          147., 146., 147., 79., 148., 148., 147., 148., 74., 146., 148.,
          146., 146., 92. ]
      - [ 146., 147., 146., 147., 82., 147., 147., 146., 147., 79., 148.,
          148., 147., 148., 74., 146., 148., 146., 146., 92., 147., 148.,
          147., 147., 85. ]
      - [ 147., 147., 146., 147., 79., 148., 148., 147., 148., 74., 146.,
          148., 146., 146., 92., 147., 148., 147., 147., 85., 147., 148.,
          147., 148., 86. ]
      - [ 146., 148., 146., 146., 92., 147., 148., 147., 147., 85., 147.,
          148., 147., 148., 86., 147., 148., 147., 148., 92., 148., 148.,
          147., 147., 90. ]
      - [ 147., 148., 147., 147., 85., 147., 148., 147., 148., 86., 147.,
          148., 147., 148., 92., 148., 148., 147., 147., 90., 147., 148.,
          147., 147., 99. ]
      - [ 147., 148., 147., 148., 92., 148., 148., 147., 147., 90., 147.,
          148., 147., 147., 99., 148., 149., 148., 149., 90., 148., 148.,
          146., 146., 83. ]
